{
  "layers": [
    {
      "activation": 1,
      "biases": [
        -1.6823587102470152,
        1.2375676927079493,
        -0.4710884745322426,
        5.559145439802501,
        -1.0378284249293668,
        -0.26938972884066875,
        1.112755711969442,
        1.6922765710047052
      ],
      "cols": 8,
      "rows": 13,
      "weights": [
        [
          -0.5159761827731606,
          -1.0438732326720093,
          0.6717875646327655,
          0.013355592525409764,
          -3.2640719175427395,
          4.402612602019661,
          -1.3180268570735878,
          -0.030686843659239144
        ],
        [
          2.135562921078219,
          -1.3322724057943294,
          0.9386910028407988,
          -0.7162872939702208,
          -2.2250713142866942,
          4.973903768685124,
          -5.501713899247029,
          -1.806083507280836
        ],
        [
          1.6071731178779824,
          -2.4407043254569145,
          1.385894658895979,
          -0.5747953557260839,
          2.8529875816456602,
          -0.05347039764549355,
          0.42610081542803435,
          -0.48987408867143983
        ],
        [
          1.3714809458093546,
          -0.7091309051943421,
          2.23295634722962,
          -4.549665596213702,
          2.3604195825111782,
          -2.836051218115201,
          2.5256163763835904,
          -0.16563392797028326
        ],
        [
          -1.2558198588340919,
          0.6367589834539591,
          -1.0256063047766242,
          -4.426933723280135,
          -1.2958143066676548,
          0.5074409272190189,
          0.10560965336149127,
          1.4962668546837337
        ],
        [
          -3.6621752602553284,
          -1.055354394708941,
          -0.9134559622917727,
          -1.7401125408895532,
          0.5379355029560138,
          0.5881587569257539,
          -2.333481467409546,
          1.7578173636491727
        ],
        [
          1.8229950690524692,
          -1.0563455190905076,
          1.306843668533717,
          -0.2512853359816471,
          -2.142175646844888,
          -0.4833520881026625,
          -3.435454184576623,
          2.089839346705753
        ],
        [
          1.6255441085824172,
          -0.6045963461771591,
          2.293061365315777,
          0.3122150582711636,
          -1.3437867933283252,
          -0.22179359396222115,
          0.7540476301060561,
          -0.8754943335495419
        ],
        [
          -1.0574281301327664,
          -1.117859930384146,
          -0.5483657855702381,
          0.6165371628023557,
          -0.2311154768819137,
          0.3022211124097649,
          4.565082142015247,
          -2.5612554941280563
        ],
        [
          1.47751314603918,
          -1.4426458602558143,
          -1.2229890148317744,
          2.1344460050649694,
          0.9836088617777827,
          -2.0168927511941046,
          -1.399823760165092,
          -2.2122563734867438
        ],
        [
          3.4352330980647543,
          -0.9216998303268729,
          -1.721683872369489,
          -1.8387327461632685,
          0.14285796365633827,
          -2.6254042947482725,
          -0.5965164748808331,
          0.18439661659636888
        ],
        [
          -0.46155719205461276,
          1.5405034900999959,
          1.4989890937754484,
          -0.6536164605084542,
          0.8087858753740722,
          -3.5061947670835947,
          -0.6848955283182192,
          -0.6729781309217626
        ],
        [
          0.5233838133837873,
          2.449032777121424,
          2.9756432047779393,
          -0.18792409370383417,
          -1.9372686556803156,
          -0.4501441003825514,
          2.988062994082572,
          0.3278340647824787
        ]
      ]
    },
    {
      "activation": 1,
      "biases": [
        0.20847934198205287,
        1.48141799605382,
        -2.2781918837984763
      ],
      "cols": 3,
      "rows": 8,
      "weights": [
        [
          -4.093550282479132,
          -3.523093769365999,
          1.8015053841354758
        ],
        [
          3.452302357307433,
          -1.4520878355989895,
          -3.028977055958591
        ],
        [
          -3.985219499780108,
          3.6077540057999458,
          -1.2685166467954618
        ],
        [
          7.856619596668913,
          1.6022785624864124,
          -3.1908161653405336
        ],
        [
          -6.1949180654434945,
          4.4247819233611985,
          -1.4639971795903606
        ],
        [
          -0.9104472576618322,
          -5.475581632612853,
          2.285104342815014
        ],
        [
          6.493379231658969,
          -3.315866815414324,
          4.617207382539224
        ],
        [
          4.006579034695356,
          0.7467391632626956,
          1.6767691116284
        ]
      ]
    }
  ]
}
