{
  "labels": {
    "labels": [
      "sus_noise_quiet",
      "low_impulses",
      "high_squeal",
      "distorted_noise"
    ],
    "rows": 4
  },
  "mlp": {
    "layers": [
      {
        "activation": 1,
        "biases": [
          0.39227530052628146,
          0.49834860051553076,
          0.8174807158143499,
          -0.22983360050284843,
          -0.18472044569604648,
          -0.3045729219540677,
          0.23450079501415508,
          -0.28841922137278425,
          0.02945331768596215,
          0.4263619987195394
        ],
        "cols": 10,
        "rows": 13,
        "weights": [
          [
            -0.06240403050659401,
            -0.16436332489574668,
            0.00623373209436353,
            -0.42036459448788305,
            -0.07741342085327384,
            0.1780089169920001,
            -0.21239222185594628,
            -0.09123214427649645,
            0.5181331624574923,
            0.0035402141749424484
          ],
          [
            0.1435423475137865,
            -0.21003420686086152,
            -0.40720629026877986,
            0.31925316332286396,
            -0.1640694248069283,
            0.1913937760049323,
            0.14452517299980297,
            -0.028542642772056964,
            0.5608216560711224,
            -0.177740197422732
          ],
          [
            0.7606367514502443,
            0.5018713860300604,
            0.3431732307804054,
            0.5169566973250304,
            -0.2776349466556307,
            0.14144408285113502,
            0.08081804254234555,
            0.2424669112545437,
            -0.2714751817108942,
            -0.1853540018132138
          ],
          [
            -0.342217152690764,
            0.20095625746641727,
            -0.5432090410025776,
            -0.3389827516106902,
            0.26189560004231444,
            -0.08891579492423815,
            -0.38234518838383014,
            0.05801879303522633,
            0.24895263616401092,
            0.6147384007243142
          ],
          [
            0.2787717367033752,
            0.24560653273088517,
            0.5218996690280719,
            -0.045565783934918835,
            -0.7231306562415705,
            -0.4398419748675719,
            0.23551003557587114,
            0.21328944429991809,
            -0.2298393719628165,
            -0.8402506201008003
          ],
          [
            0.2732135372891418,
            -0.020904038963566754,
            -0.35022474064470116,
            0.29473498180291935,
            0.08590672681191211,
            1.2389207857794433,
            -0.21086715926794306,
            0.5837913305024877,
            -0.2992148554349494,
            0.1306082478854127
          ],
          [
            -0.08302755166300542,
            0.41503658137675487,
            0.17094942555272977,
            -0.570653877373054,
            -0.28308198435608956,
            -0.7840149379843568,
            -0.5528276118981601,
            0.5209637412024237,
            0.3329489487596256,
            -0.6800165980536083
          ],
          [
            -0.3015023948059725,
            -0.14167345326357786,
            -0.4714590926942051,
            0.6315036250565145,
            -0.0868952952059256,
            0.2836629333944308,
            0.20739207512387492,
            0.75980666834573,
            -0.3208871844998586,
            0.5024397247127134
          ],
          [
            0.6040369225552092,
            -0.4048452074409153,
            -0.08489494701571511,
            0.013201762275812516,
            0.14041215715518554,
            -0.405558677426329,
            0.007330106128006161,
            0.7012673015108938,
            0.3122816559961773,
            -0.03193330022542177
          ],
          [
            -0.24919281801571308,
            0.0767473896532568,
            -0.33039825985607885,
            -0.47664072148853226,
            -0.6876065625684555,
            0.1363617524085314,
            -0.46305737302930394,
            0.26282764091300975,
            0.11633565014511818,
            -0.2692513268324779
          ],
          [
            0.13454824352296949,
            0.07675328995791897,
            0.054026292126937873,
            0.028943625789714916,
            0.2450460013069612,
            -0.18859418329236433,
            -0.18591146049984397,
            -0.03846397237614136,
            -0.37918460382808156,
            0.16805788838550723
          ],
          [
            0.22972980068333804,
            -0.6998000147798997,
            0.1027573838549127,
            -0.48323949844212233,
            -0.21438047976896804,
            0.3231663838858402,
            -0.12364488105976901,
            -0.3677987752122571,
            0.2758341984787956,
            0.1819356094154618
          ],
          [
            -0.28099903931054127,
            -0.2571567308682669,
            0.3709522357904375,
            0.11752333925733222,
            0.12200524918753002,
            -0.44198799528551336,
            -0.734339836785393,
            -0.07470599462809145,
            0.13298614565205455,
            -0.5703879352756908
          ]
        ]
      },
      {
        "activation": 1,
        "biases": [
          1.1906953883265807,
          -0.32948126894793744,
          0.8012374624376898,
          0.3736414602149186,
          0.2656229560341919,
          -0.2990595209976319
        ],
        "cols": 6,
        "rows": 10,
        "weights": [
          [
            -2.3308242014726903,
            -0.5832714643145248,
            -0.9328200306130018,
            -1.0249595032209113,
            2.448385792632134,
            2.0019806239684477
          ],
          [
            -0.5632334696187201,
            -0.6171031264672527,
            0.7772784819989467,
            -1.8050459210799799,
            1.0859960584593586,
            -1.0763016833040218
          ],
          [
            -1.425718815540619,
            -1.7615391385237522,
            1.3617415156351933,
            -2.9159753220177995,
            3.3284257328881837,
            -0.7344003089222831
          ],
          [
            -0.5520311617756046,
            2.1693015193888843,
            0.058784933856065265,
            0.5178657232249683,
            -1.4016987078359795,
            0.364166617335301
          ],
          [
            1.6260077524984247,
            0.5298548992820727,
            1.30571791535374,
            0.11200758013784654,
            -1.597525541975796,
            -0.8096877841343174
          ],
          [
            2.8696215337487607,
            -2.6924770308890684,
            -0.9528959222926897,
            1.8589454260093725,
            -0.5620897598623057,
            -1.0070866178821676
          ],
          [
            -0.6762108579980564,
            1.9889444224963546,
            1.8857277504705579,
            -1.053899382557193,
            -0.8318986462416846,
            0.3377592057249666
          ],
          [
            0.37137449976718295,
            1.3756644834294764,
            -1.0037513927277957,
            1.7472731860298092,
            -0.7322648084779483,
            1.7413319409441665
          ],
          [
            1.1119643490020878,
            -2.0700952192646773,
            -0.8068179612302824,
            0.01805068016969726,
            1.9423932604241334,
            0.11414078532784157
          ],
          [
            1.6547144399567608,
            -1.7366820957089144,
            1.3837988090244386,
            -1.0269810219449749,
            0.11008307495770862,
            -2.603871859500272
          ]
        ]
      },
      {
        "activation": 1,
        "biases": [
          -0.8585777774568029,
          -1.6136245582292859,
          -1.1776627818180951,
          -0.26078511782978003
        ],
        "cols": 4,
        "rows": 6,
        "weights": [
          [
            -5.241418896197451,
            1.0627170894943523,
            2.3514447285446947,
            1.6248693536645031
          ],
          [
            2.3525875425909404,
            -3.5481355442130984,
            2.6445469472775316,
            -4.680732851818503
          ],
          [
            -0.18351658462851905,
            -4.311829597559735,
            0.4084154345276058,
            1.8540610416040741
          ],
          [
            -2.986048857863006,
            3.6522567703336732,
            1.1662117693478147,
            -3.9408230199955137
          ],
          [
            1.221410934657351,
            0.2891615186770594,
            -6.458018726977081,
            1.8455473920071512
          ],
          [
            3.0586542846404816,
            1.125465801590506,
            -0.3984931147458257,
            -4.155035980941464
          ]
        ]
      }
    ]
  }
}
