{
  "layers": [
    {
      "activation": 2,
      "biases": [
        0.4097074830876214,
        -0.9747459812958325,
        -0.5303868226342073,
        0.0,
        -0.9217730443673301,
        1.1312873380424313,
        0.9454958039591331,
        -0.1310690717145346
      ],
      "cols": 8,
      "rows": 13,
      "weights": [
        [
          -0.4423583411569143,
          0.8681652232229492,
          0.9044693420810567,
          -0.3355012354427485,
          1.516053243972117,
          0.4089855490060141,
          0.8557736400449316,
          0.38619184664911815
        ],
        [
          0.8102253465718954,
          1.4583402575430318,
          1.67955858089788,
          0.44294026588063373,
          0.7733942231492015,
          -1.2153375806180198,
          -0.06467896164009862,
          1.401081019896521
        ],
        [
          -0.7261228530892236,
          -0.2134741196518485,
          -0.6398503083733496,
          -0.33210605668218135,
          -0.28894832503148227,
          -0.10356856397666961,
          -0.6262371046424602,
          -0.3738900591598858
        ],
        [
          1.333027759180592,
          -0.3925320019594427,
          -1.3183915109766684,
          -0.22271855835035445,
          -1.5002307112837192,
          -0.07182947582565806,
          0.23396977413571085,
          -0.08000962621827512
        ],
        [
          1.595095326330742,
          -0.08485754198011704,
          0.6229813460933301,
          -0.5043784528164003,
          -0.02281358696487819,
          -0.04127862002005245,
          0.4605325916533741,
          0.23125749803272524
        ],
        [
          -0.012797500039391155,
          1.0760910281500558,
          -0.37154342847698185,
          0.43793697686268857,
          -0.5428889608925852,
          -0.47946957772221527,
          -1.4712457952623001,
          -1.5291085420532844
        ],
        [
          -0.5661243740633924,
          2.773600751419642,
          -0.15571279131942817,
          0.0321678630395751,
          3.161524036616378,
          -0.5113001823863741,
          -1.9696979450082104,
          0.6142319586000391
        ],
        [
          0.37353564441476145,
          0.7207536566231224,
          0.4442566351846935,
          -0.29147952460869153,
          -0.8360680108609093,
          -0.4801571327941987,
          -0.4428575703011972,
          -1.0269043036627596
        ],
        [
          -0.5977330526958669,
          -1.222821593089486,
          0.7305747334519497,
          -0.5323283273651801,
          -0.1541528977549137,
          0.5444604161463178,
          0.08944013925412453,
          0.5675819944660832
        ],
        [
          1.5644276986188783,
          0.0737430000555786,
          -2.018473874351093,
          -0.004863766262058655,
          -0.23074770404852463,
          -0.10262403067106789,
          1.8447643824092075,
          0.4290329591324294
        ],
        [
          -0.9779643131500896,
          -1.840919409231406,
          -0.07029813007161348,
          -0.49790202504292713,
          -1.045966484570616,
          0.503072696338274,
          0.0794427463556615,
          0.5717323506107272
        ],
        [
          0.019518524811518966,
          0.5385325202417935,
          -0.1053227157368725,
          0.2446718653566906,
          0.738734283006842,
          -0.0953905404213937,
          0.5709912445117472,
          0.43524092343681414
        ],
        [
          -0.8117775569568236,
          -0.5486948742162262,
          0.1502550102705455,
          -0.4159494984884741,
          0.4558959762021038,
          0.4098503385954451,
          0.5803509813173577,
          0.5461032904127491
        ]
      ]
    },
    {
      "activation": 0,
      "biases": [
        1.5512425989972676,
        -0.2506297704814447,
        0.1542038654876505
      ],
      "cols": 3,
      "rows": 8,
      "weights": [
        [
          -1.7113775553457167,
          -0.5056852467940938,
          1.402946991564577
        ],
        [
          1.809263034460541,
          1.3962088256233225,
          -2.0789578275489613
        ],
        [
          -1.9701098458642705,
          -0.0311738659450994,
          0.6836726733510513
        ],
        [
          0.599921037715674,
          0.25456791895215125,
          -0.4919712715280614
        ],
        [
          -1.19844334887576,
          -1.753876348675588,
          2.323827978668072
        ],
        [
          -0.3296456815185273,
          1.4213052454420552,
          0.28143459257371023
        ],
        [
          2.1182821299717816,
          -0.1039102565863757,
          -1.2135573123084047
        ],
        [
          -1.6993956694165737,
          0.4012106061883592,
          0.26840566583197273
        ]
      ]
    }
  ]
}
