{
  "layers": [
    {
      "activation": 1,
      "biases": [
        0.8661967570131935,
        -1.4726613205235546,
        -1.5648901527372108,
        1.4153355697763166,
        -1.3138324959481014,
        0.7924158347023423,
        1.0578519641311392,
        -0.6134975227443746,
        0.45907190671521153,
        -0.15860606437186126
      ],
      "cols": 10,
      "rows": 13,
      "weights": [
        [
          0.05675537029695277,
          -1.8733827170174788,
          4.612361171581257,
          -0.8621933638288183,
          1.517037011871418,
          -0.8781236006194719,
          -1.562152106691613,
          -1.5699102085120327,
          -3.0701605437230666,
          -1.5948028278576296
        ],
        [
          -0.04653413261866655,
          0.7659332338539511,
          3.4642556159436935,
          -1.3961869601402326,
          -1.5518700451991894,
          0.26991385683049507,
          1.5609165702221737,
          -0.28569274744416623,
          0.7885463578917249,
          -0.2080302737180448
        ],
        [
          -0.7971919006118583,
          -1.6237183990422908,
          1.5651813970635116,
          0.3042430692442995,
          0.06961588347687703,
          0.9178518442826074,
          -0.02500848005538833,
          1.5735759240184855,
          -0.9730216191047232,
          -2.83922177020469
        ],
        [
          -2.143828616685435,
          -0.1602553449252711,
          0.446877379305072,
          1.4488991120710988,
          0.42798745098857116,
          0.9556837304127065,
          3.511611584386326,
          0.38074507822008663,
          1.009487276249702,
          -0.09495093714040954
        ],
        [
          -0.11669538654930568,
          -0.023805795557123463,
          -0.5521217229918984,
          -1.2672642492190667,
          -3.589693808769745,
          -3.1088687002814517,
          0.34119540279097427,
          0.9869185774146497,
          -0.6877620094851229,
          5.141947427829353
        ],
        [
          0.7036876150992055,
          -0.43685369121200424,
          -0.5912676055654293,
          -1.1144838572729099,
          -2.8650336939469585,
          -2.0929491288788697,
          -3.9567076693851995,
          0.12867539538891798,
          1.0693075083027916,
          -1.9129480477524041
        ],
        [
          -0.8114921110653786,
          0.906723587788741,
          -1.7675248977205953,
          0.08116412835000843,
          2.7509002758130308,
          1.2042431492455223,
          2.3009088987228465,
          0.9384807930190945,
          -1.1423588156015294,
          -0.7820210016950089
        ],
        [
          0.8625497873515655,
          0.24448418019390114,
          -0.16771014394505027,
          1.8944381737162916,
          2.9545944970580043,
          -0.6400524355756637,
          1.5665772496875674,
          -0.382084658503756,
          -0.4740556458979184,
          1.0175904765683659
        ],
        [
          -0.277663138752492,
          2.6718132521784725,
          -2.4745309536236753,
          -0.18481846341259964,
          -0.776190998444539,
          -0.40851920732548797,
          0.19665987387267309,
          0.49145953499508305,
          -1.6855087418037262,
          -0.11942622820794485
        ],
        [
          -1.3060270707515709,
          0.687315768386215,
          -0.859857413296939,
          0.6875085720307805,
          -0.7476315079965296,
          0.8549047076430673,
          -1.165284936129177,
          -0.26833462810924646,
          -1.4328916075995586,
          -0.601815058599068
        ],
        [
          -0.4118199265525207,
          2.3980802242882443e-05,
          -2.178316227165014,
          0.22332971332795762,
          0.4822223515704925,
          0.679806346918425,
          -0.03731840886213963,
          -0.6443608161902754,
          -1.9758716265409715,
          0.2759666410425042
        ],
        [
          -0.11425973377605987,
          0.32944316561212383,
          -1.6647792643903276,
          -3.4620396640169755,
          1.6179532601594033,
          -1.6357454252048325,
          1.0288043722209055,
          1.2879594766142464,
          0.9623306206716721,
          -1.4079399749173207
        ],
        [
          0.5933946992991107,
          -0.36486906752376097,
          -2.488292819133275,
          -2.0580344106354964,
          -2.1611960867047344,
          -1.4324800573267775,
          -0.6510738543422874,
          -1.0318603663877102,
          -0.12499525940344137,
          0.10809246590982882
        ]
      ]
    },
    {
      "activation": 1,
      "biases": [
        -0.16200878187202458,
        -0.6746525154448753,
        0.21555118475511334,
        0.03605802627770205,
        0.5330118452196131
      ],
      "cols": 5,
      "rows": 10,
      "weights": [
        [
          1.960679666420762,
          -2.252204576602476,
          -0.31477276519046377,
          -0.03164454127577058,
          -0.4529186818763801
        ],
        [
          -4.013286319945616,
          -0.11732258941804605,
          0.13542209968422447,
          0.09964663931179445,
          0.31668258200976135
        ],
        [
          -5.17589385016982,
          2.714848904975502,
          2.2060128705833577,
          1.2845103163481848,
          1.9356272929868785
        ],
        [
          3.2165112499007975,
          -0.6768848429916775,
          -2.360366353498228,
          0.07376812697042948,
          0.6203488170748588
        ],
        [
          0.006324544343776279,
          4.047859177727152,
          2.6142206546072178,
          -2.2928728159535825,
          -1.2480517309819155
        ],
        [
          2.780846000505589,
          -0.148666996790421,
          0.19306822131669252,
          -0.0322802815373885,
          -2.93711618887512
        ],
        [
          -0.4869018065481266,
          -2.525589801300593,
          -1.6571363455096009,
          3.2448412230236383,
          2.1015521390675262
        ],
        [
          -1.7873021597589727,
          1.6828662647768027,
          -0.053304324186882565,
          -0.7839688631490555,
          -2.2854240718399135
        ],
        [
          1.3374951176540442,
          -1.6873903906851715,
          -2.2081814789676684,
          0.07548892322862868,
          -3.7801614439792135
        ],
        [
          1.7161085037815622,
          2.5668974532459776,
          1.1104877834153362,
          -3.4965588715547575,
          -2.1344263221799245
        ]
      ]
    },
    {
      "activation": 1,
      "biases": [
        1.011683144227719,
        0.14409032617500395,
        1.4960468481010414
      ],
      "cols": 3,
      "rows": 5,
      "weights": [
        [
          7.019307161312371,
          0.700769942748264,
          -2.9026342795910605
        ],
        [
          -1.5877075611504716,
          -4.077349728595597,
          5.172407262100363
        ],
        [
          0.2855828270151709,
          -4.9511676243799325,
          1.5032681982505238
        ],
        [
          -0.5918326486719465,
          3.584632948112049,
          -2.104356265367122
        ],
        [
          -3.0146195836189795,
          -2.0889824331340128,
          -4.917581662937688
        ]
      ]
    }
  ]
}
