{
  "layers": [
    {
      "activation": 2,
      "biases": [
        -0.18009396689470394,
        -0.040671480629370996,
        -0.05092133511989378,
        0.0670702078360808,
        -0.07477756706570972,
        -0.08159978377757271,
        -0.018174745501132607,
        -0.17849167538106858,
        -0.19965747533843334,
        -0.06906105700425048,
        0.02819338805594669,
        -0.2553808368766388,
        -0.18399601793962864,
        0.06284416408475041,
        0.006841012176730759,
        -0.07887501765190309,
        -0.12653597078635573,
        -0.1713444037238826,
        -0.10147531563757546,
        -0.021141236004054355,
        -0.16551525750181773,
        -0.1434354789976681,
        -0.17425837540486,
        -0.15046439408319354,
        -0.045772810642355506,
        -0.01070142119999696,
        -0.010023370964459736,
        -0.06146593884023226,
        -0.045255007374242526,
        -0.07292882339136737,
        -0.16920319660933486,
        -0.09965379410679433,
        0.008392069526196205,
        -0.0701912850154273,
        -0.06704146601565918,
        -0.23177065130708255,
        -0.06665988886676098,
        -0.051301180294155514,
        -0.027285395228070188,
        -0.2166874632481385,
        -0.1009372765247191,
        0.06624426464439004,
        -0.05252461806011358,
        -0.28493929733274975,
        -0.05372814879553156,
        -0.17207853153583874,
        -0.10268462473098247,
        -0.06611714380529214,
        -0.08079145747599696,
        -0.17238026410414212,
        -0.030948422088056694,
        -0.1530018971244667,
        -0.06935170503601305,
        0.027856393941849966,
        -0.08938352514577058,
        -0.010072084864290986,
        -0.21582925605182043,
        -0.06660147632284574,
        -0.29694372142019365,
        -0.11796580880163995,
        -0.22494911031360848,
        -0.06543144975220062,
        -0.03473761365760772,
        -0.020092275387724484,
        -0.07716261065976084,
        -0.11941546933837707,
        -0.28213488865331116,
        0.02153722010162355,
        -0.10489607594960189,
        -0.061539146275985133,
        -0.1094958627690887,
        -0.11288350307077655,
        0.009582150145253782,
        -0.026054425527599255,
        -0.024193809084959578,
        -0.11472685885898917,
        0.07786965616597653,
        -0.04454527489941165,
        -0.08240023057854676,
        -0.009359642903398845
      ],
      "cols": 80,
      "rows": 130,
      "weights": [
        [
          0.1453799831263999,
          0.09824927803746807,
          -0.0016275261913521375,
          0.006578584208121542,
          0.1679825600651092,
          -0.09812442160806492,
          0.04508275516817689,
          -0.038932900578923006,
          0.1321510834725435,
          -0.4014940309469662,
          0.2989193450522399,
          -0.23702077681076392,
          0.1093473732349788,
          0.1922892563881972,
          0.27208439841980053,
          -0.00030333305605738744,
          -0.1453161192119118,
          -0.014656430669327371,
          0.3759554705838185,
          0.14495190256838536,
          -0.08297413404906533,
          -0.06798092984172424,
          0.05427041172594735,
          -0.3213171697264051,
          -0.029383050316942112,
          0.3849028047971226,
          0.2623348495974009,
          -0.01310305585736601,
          0.1270679952056361,
          -0.0063012643818708735,
          0.08931193259562036,
          -0.11671570932095424,
          0.41923851815954394,
          -0.1235565105643552,
          0.355597626166742,
          -0.042503264150906446,
          -0.23063351010252883,
          -0.07324822555004223,
          0.17443633219809696,
          0.0894367905633447,
          -0.10912846589003872,
          -0.1743720940522055,
          0.05062021418117412,
          0.06091998849964283,
          0.2791837664219288,
          -0.05349539346208355,
          -0.06190988574681768,
          0.2577707365843011,
          -0.2822720327750958,
          -0.02356558090974683,
          0.2454320301733156,
          0.01175328378207848,
          -0.11069378677405517,
          0.09316413694162738,
          0.02112108861853066,
          -0.1508625579796295,
          -0.3371058955501297,
          -0.07593798178183434,
          0.4861756980236381,
          0.26623845445298,
          0.2561478853515475,
          -0.2985963949735693,
          0.1612627961391537,
          0.19284871587595523,
          -0.21228071459383474,
          0.2156451843108665,
          0.24556718585744003,
          0.11267280490995636,
          0.015564800394868121,
          0.2699627669119141,
          -0.17002366569367142,
          -0.15513304629132732,
          -0.147944284751558,
          -0.1547331099668347,
          0.10978687182340983,
          0.052272776136959624,
          -0.15447071203209503,
          0.08232905544414176,
          -0.20794325609163716,
          0.1985893866209432
        ],
        [
          -0.0215417296750755,
          0.16869820739053532,
          -0.09204583166379587,
          -0.45724569516882135,
          -0.4071694638133943,
          0.19538725749358854,
          -0.07791563634117034,
          -0.23887891558926586,
          0.025423492074526894,
          0.1536673057265041,
          0.11036889975890908,
          0.06343006644601593,
          -0.3067324297154856,
          -0.4169449830824245,
          -0.15875496359318644,
          0.2811523599296833,
          -0.24971310090837268,
          0.20576532683508136,
          0.06183157785730461,
          0.041160578943331486,
          0.2168612863767644,
          -0.024619441909710695,
          -0.37901363776595287,
          0.07784745226886156,
          -0.0785121864067085,
          0.5685063908936807,
          -0.1902025932797845,
          -0.057623048215208215,
          0.060594103528174535,
          -0.09557030246884243,
          -0.36557612709998666,
          0.3501219023605012,
          0.29089241953939926,
          -0.12975926032715007,
          -0.10670633369259164,
          -0.11500827624462512,
          -0.04861444230240226,
          0.05912415620641691,
          0.0019790705543629517,
          -0.06892386655425398,
          0.013847066932531923,
          -0.304305151178307,
          0.08335001585749001,
          0.03984340609386824,
          0.23662449523326293,
          -0.03581318946157912,
          0.14339008706141979,
          -0.07478234965670101,
          -0.016534508356093883,
          0.04409509937734183,
          0.3575065088625399,
          0.048862113981745336,
          -0.18715891649305033,
          -0.01287541417614845,
          0.23985504779680553,
          -0.20944675309843624,
          0.04135904154035984,
          -0.2022817444929512,
          -0.13875453501762214,
          -0.23221143591817664,
          -0.6011073692972044,
          0.05972511092665319,
          -0.250641989211132,
          0.22287208510381773,
          -0.21513822770299362,
          -0.31616115479539253,
          -0.060808445784714185,
          0.055109980907833506,
          0.342062502582165,
          -0.1437015233294823,
          0.41028264754574617,
          0.022354438445331342,
          0.025439219309776637,
          -0.18469197822660066,
          0.24559333560910562,
          0.07443766550347283,
          -0.40175742750146193,
          0.011147534831157957,
          -0.15752329964243336,
          -0.42814101687982514
        ],
        [
          0.19327093298759584,
          -0.049348338427103934,
          -0.2511213662577903,
          -0.22922874730220447,
          -0.28954772643679744,
          -0.1351105502565123,
          -0.21621827348093026,
          -0.053490106371027676,
          0.100044909678795,
          0.23174582789798617,
          -0.0018997073163609785,
          0.41289289569323057,
          -0.12554910397270394,
          -0.11561550726072621,
          0.058308872906829234,
          -0.2031689008871667,
          -0.028777622476821783,
          -0.10520698626684599,
          0.1057546924943605,
          0.1843415859783347,
          0.24486672869188433,
          0.22336243513016185,
          0.02583854974320016,
          -0.165500707027143,
          0.07909984941121626,
          0.22367489580147876,
          -0.011412601982358526,
          -0.0074688175559754835,
          0.07933664022355806,
          0.2215042844817625,
          -0.38347475304503637,
          -0.11257769794114891,
          0.06956373662761951,
          -0.043152728091371696,
          0.3856509402766796,
          -0.08250351745534197,
          0.16876209024280864,
          -0.09409913219672034,
          0.1926009592626526,
          0.21513235312257364,
          0.1818002633535978,
          0.00607638177285946,
          0.07104368246864663,
          0.2799849450121753,
          0.28627358600855063,
          0.05426810171471378,
          0.15359209396699236,
          0.08845924758405171,
          0.17132833069498496,
          -0.030505124262270717,
          -0.06788691861208532,
          0.021791814196520258,
          -0.034200707982278755,
          0.28905086120542606,
          -0.06207174572528269,
          -0.11547835484592542,
          0.030751586748184845,
          -0.06948362599301204,
          -0.45809375027941224,
          -0.26236756783238235,
          -0.2786425087232249,
          0.04800805336692179,
          -0.07758766131488291,
          0.04008494584106573,
          -0.14728271848651547,
          -0.27151082673448224,
          0.17713366376574452,
          -0.23603142281958306,
          -0.14597411595996276,
          0.2883053871256786,
          -0.1533677325915382,
          0.11550041517436874,
          -0.06521017914924086,
          -0.05677514427277656,
          -0.24479467162273857,
          -0.0032942241307021315,
          -0.09393111895676413,
          0.003571346387365771,
          -0.28694921922739375,
          -0.2172046164500976
        ],
        [
          -0.11484374377618796,
          0.20142537539376787,
          -0.0472928863796672,
          -0.19648347055245763,
          -0.2995290932790565,
          0.07129947638700145,
          -0.3590581558955728,
          -0.3262216656622167,
          -0.17297902266114554,
          -0.18012178628635825,
          0.20010406156133753,
          0.32070667128387176,
          0.03530162595047557,
          -0.3888132157055996,
          0.1850166826089312,
          -0.3370794213432623,
          -0.28287098663787363,
          0.27375655313847524,
          -0.2713375083182801,
          -0.10171524863269545,
          0.35878261318098825,
          -0.14111679168297814,
          -0.372288342292269,
          -0.15719472461987727,
          0.4807149445675543,
          0.3043079615868835,
          -0.028516261949671027,
          -0.11452316215695221,
          0.12971849111562297,
          0.0037855682865815064,
          -0.07554361240326124,
          -0.37027090494860243,
          0.12235575850888143,
          -0.027694803501562035,
          0.27090153575590065,
          0.058932423855211295,
          0.01656596860028257,
          -0.061519307298519524,
          0.12490809460037139,
          -0.00877803710274449,
          -0.028651199694733395,
          -0.18937441792285412,
          0.1800546479454209,
          0.17686497737916881,
          0.32654332973608013,
          -0.29496780170478043,
          0.1600861387833767,
          -0.18758563666428793,
          0.040959535111007105,
          0.08339776312500294,
          0.3098559492664508,
          0.02464559041284533,
          0.06134950310287277,
          0.0841014761497696,
          0.03375217740311723,
          0.18222237805361052,
          -0.23282223217095546,
          0.14189605048882228,
          -0.19179799177602833,
          -0.05378056994151895,
          -0.2522698715812995,
          -0.1268795920000098,
          0.2415058474612001,
          0.3846127235604019,
          0.17640693865576734,
          0.141165657003684,
          -0.07057161048237602,
          0.11176517705227357,
          0.3080818202646891,
          -0.02662005955507494,
          -0.11759211694291007,
          -0.12265068157351249,
          -0.004739513760071654,
          -0.1066391910682054,
          0.02069693036084927,
          -0.13614843252735445,
          0.05630709115299496,
          -0.026859884344476132,
          0.08654649191896291,
          -0.14374767221559798
        ],
        [
          0.10634841098912864,
          -0.06156349321099198,
          -0.2954291671083788,
          -0.1152605127579634,
          -0.11823320775131065,
          -0.04397584748226334,
          -0.02173491431344019,
          0.09492452224299178,
          0.0937347143332702,
          0.13705730641654154,
          0.018153376521438263,
          0.14846984594833681,
          -0.1413396761086055,
          0.003359205179178416,
          -0.0561116416609118,
          -0.10407266128538743,
          -0.2568053198676946,
          0.039657076762708084,
          -0.09601734789650732,
          0.04354074945661174,
          0.08630561874896994,
          0.24143106230976377,
          0.626966880991819,
          0.15796128719307828,
          -0.388191752961372,
          -0.14415157655303887,
          0.10717042182259517,
          0.10216645702676004,
          0.002459555812715991,
          0.05002318772197404,
          -0.07900872481064708,
          0.007313548905041644,
          -0.058531432572293214,
          -0.09961468693952502,
          0.13026635082011798,
          -0.05597393256857518,
          0.0659984954510619,
          0.06089269425895569,
          0.27477837129334043,
          0.4752651950390549,
          0.13614753493601925,
          -0.03822116463604073,
          -0.0961973361006568,
          0.07632731224155706,
          0.21532728745215607,
          -0.14978635163796575,
          0.1701984863019304,
          -0.003953853400720687,
          0.08016184095102173,
          -0.22025800010358007,
          -0.031186650949351927,
          -0.08846964770446004,
          -0.01365699730025547,
          0.16463176470883126,
          0.020313956632816287,
          0.050717010382461916,
          -0.26860399311265504,
          0.08552187685462431,
          0.11553249145523174,
          -0.05276004900141647,
          0.14859187213450348,
          0.10055101642986385,
          -0.11822368059593232,
          -0.025584076627336635,
          -0.20792804775470722,
          -0.15755839355840082,
          -0.03446058946611367,
          -0.15200436763626243,
          0.21107296196480965,
          0.1751230094818145,
          -0.20509538445243625,
          -0.016769148434922936,
          0.5889725606455871,
          0.4768227460897204,
          -0.23527540024337348,
          0.00720492826292818,
          -0.051994433874455535,
          -0.04226690963303839,
          0.07513634416985278,
          -0.05024007518512948
        ],
        [
          0.05221091702818114,
          -0.04629878102089436,
          -0.2279132980469607,
          -0.09268331348662416,
          -0.040236181599160835,
          -0.014427380919920334,
          0.06445625740998143,
          -0.1027126956047262,
          0.17897097189195868,
          0.07242802276273981,
          0.08902846759159325,
          0.026293503007525698,
          -0.34499762573901915,
          0.042537384898278775,
          -0.03481508450095697,
          -0.0730752457452168,
          -0.08042278309672732,
          -0.015953202073117224,
          0.004135981652528516,
          -0.21689539685950035,
          0.03018455091886869,
          -0.13411263103392015,
          0.10281696198153074,
          0.0810830431524352,
          -0.03930548582191549,
          -0.19199229465534462,
          0.07709218695297121,
          0.08529428843746913,
          0.06534221704869964,
          0.01869412083535644,
          0.09673414709845736,
          -0.12374014942138141,
          0.1129642105615319,
          0.11352028005087458,
          0.0044007447189446346,
          -0.16029230825423418,
          0.020753852674315638,
          -0.015200283237419428,
          -0.16758929781920928,
          -0.09071798832345965,
          0.054595421927213277,
          0.07859083568146137,
          -0.23504450620274583,
          -0.02135768275835153,
          -0.1104623248501326,
          0.07249155724750887,
          0.11741564708501251,
          0.010701118033756854,
          -0.10252243107476748,
          0.1859409157112158,
          0.11600733529413197,
          -0.10605518187256531,
          0.17844861530749168,
          0.1091471597400032,
          0.01930372189891133,
          -0.046451211852678656,
          0.20515680872146508,
          -0.000568739175748644,
          0.08497484368010541,
          0.04831045063448187,
          0.1731677583138619,
          -0.24027913884082477,
          -0.198716234085551,
          -0.08349160273731704,
          -0.09254227560721982,
          0.2673909586865485,
          -0.22883522804686487,
          -0.0705279806088861,
          0.11103362379962542,
          -0.25058970493153704,
          -0.3404175159461529,
          0.22090919456339525,
          0.1536810368463568,
          -0.04854507399700979,
          0.021233109709753156,
          0.011503679815715403,
          -0.14916557999859104,
          -0.12085584391719861,
          0.08211575568138121,
          -0.18235694089306442
        ],
        [
          0.0659046980025977,
          -0.013763022858402927,
          -0.2376448329430443,
          0.14268421055785943,
          -0.23604099688437058,
          -0.04277202778851561,
          -0.2592732787544706,
          -0.3813003036148787,
          -0.32842513313511035,
          0.04186214823260902,
          0.02538224515338349,
          -0.03508162718816906,
          -0.057379333603333214,
          -0.24438494729310128,
          -0.02196783533334733,
          -0.20962555741453268,
          -0.020541538160099286,
          -0.09079807950152327,
          -0.02621250930333667,
          -0.3254623639202302,
          0.2563598326948497,
          -0.08792321493031438,
          0.09911248645577603,
          -0.1892008459033179,
          -0.3418432714040627,
          0.06141470982735155,
          -0.2087791465067872,
          -0.2524665839582121,
          0.029545218903391925,
          0.2728884241373993,
          -0.24614743740004477,
          -0.2619967938729375,
          0.12504232875727578,
          -0.38048758441265496,
          -0.06806807423351524,
          0.12205004923357814,
          -0.09770437374578719,
          -0.29323510292961896,
          -0.21833295037279146,
          -0.14032576583660475,
          -0.03921890070607767,
          0.012296589462403206,
          -0.271079246690657,
          0.11680371893696713,
          -0.23181507905140566,
          -0.11214807737144013,
          0.07458889881159929,
          -0.17079377793523257,
          0.02949111970020149,
          0.0731445788319794,
          0.061551777877416856,
          -0.06048969015492094,
          -0.020748563182312205,
          -0.1956701093637911,
          -0.07473304605250432,
          0.004688898552721194,
          -0.18997739607637237,
          0.04297391229190752,
          0.09096412872578581,
          -0.30779737786225,
          -0.318827231981997,
          0.04902591608788763,
          -0.003361421977815054,
          -0.10611769236693679,
          -0.24770255981704078,
          -0.04422095087948431,
          -0.016464884202198684,
          0.15911340426130402,
          -0.37937986008790936,
          -0.19499470387764248,
          -0.13892096838237733,
          -0.16025547600923734,
          -0.15828280608905732,
          -0.20421150801169577,
          -0.0446675561961977,
          0.16437605153115037,
          -0.1344034552880655,
          0.12102230914534329,
          0.022807142494527442,
          -0.09186638284785031
        ],
        [
          0.05484926237069897,
          0.16366155779430494,
          0.0458701914767144,
          -0.09712333151768213,
          0.008205259786239663,
          -0.1557659526031953,
          -0.2540872646753541,
          -0.20578003481756868,
          -0.10308916256981954,
          -0.17757334431153118,
          0.007770524537161227,
          -0.12547063897536717,
          0.46203516754452495,
          0.17372160920214505,
          0.1426414915977876,
          -0.11650719074363794,
          0.1397750791108604,
          -0.08555277993789669,
          -0.03961378873633479,
          0.01774541804943816,
          0.1768969749744696,
          -0.21739199514271346,
          -0.24350746661936112,
          -0.06107874068102754,
          0.19446401967440732,
          0.10031486492266063,
          0.04106467993022284,
          0.11798847595847801,
          0.05913540767904967,
          0.2084325057448373,
          -0.015831024768422665,
          0.028953814441624075,
          -0.17366353514531793,
          -0.09280220783747888,
          0.025465291021633217,
          0.06065810132964863,
          0.3532850745777057,
          -0.21310810420197357,
          0.012960876202390132,
          0.07466464972584963,
          -0.38232263007658723,
          0.0832130484683372,
          -0.14866563494549556,
          0.12160476028667569,
          -0.13590993468480347,
          0.09116812048702484,
          -0.004496899323900381,
          -0.1014256728559144,
          0.05272486422467897,
          0.2518856945864722,
          0.07370549241374773,
          -0.191824643763914,
          -0.059056327593643355,
          0.16557133059571078,
          0.029263143031347787,
          0.2610574424266914,
          0.09818933119992326,
          0.26084516924130374,
          0.4714845306654281,
          0.11917681876016395,
          -0.03504882939885271,
          -0.06451150354144534,
          0.30068468847080265,
          0.016499723969878966,
          0.09933585379395383,
          0.17403455643534668,
          0.13514975067693172,
          -0.176244529326016,
          0.09598470448450208,
          -0.3403966183295974,
          -0.05144112612823543,
          0.18837385172639246,
          0.05163947258903797,
          -0.09599362487752278,
          0.2653984224321812,
          0.28545016535660683,
          0.028256062919188106,
          -0.10055755390046825,
          0.1136708767127728,
          0.2088657466416005
        ],
        [
          0.2462137527034283,
          0.03825120670361821,
          0.15809730572650713,
          -0.08608958249750788,
          0.3350531824810905,
          0.19094624631764695,
          0.2075627217542946,
          -0.01752679761904055,
          0.0251547851501253,
          -0.10483935036081096,
          0.07590845561720304,
          -0.07463267118791382,
          -0.43682171071082987,
          -0.005844711438492559,
          -0.23963365755581043,
          -0.024270020944069923,
          0.18341843407084402,
          -0.11192263594237585,
          -0.000826099501164532,
          -0.2764219511417498,
          -0.054555387692577006,
          -0.014779654330420484,
          -0.05433687098021439,
          0.018879989293329687,
          -0.21708121979310013,
          -0.1369339720098005,
          0.11817355594089607,
          0.026344617209961826,
          -0.05391243395188184,
          -0.03304319026173428,
          0.16856592026907768,
          0.10734449742680631,
          -0.05222169657094806,
          0.053402746221581567,
          -0.015150014922811579,
          -0.34658868999959974,
          -0.11702589624302881,
          -0.09843714016442907,
          0.06142121547061922,
          -0.05875583927999993,
          0.10326958542530781,
          -0.05078764460308722,
          -0.039380527879361985,
          0.12846269254335999,
          -0.14006528978791913,
          -0.03127224026041549,
          -0.07259152804758567,
          -0.15753180823999605,
          -0.08862491093372948,
          0.21527819014241176,
          -0.1239381780275468,
          -0.11229932993593127,
          0.01978157799043973,
          0.0789008909364212,
          -0.05826972998279302,
          -0.14131190175866554,
          -0.03686058788418465,
          -0.0509996242305934,
          -0.19041434416130704,
          -0.05350626098853289,
          0.18065286591350668,
          -0.09717304642052058,
          0.0861946861561585,
          -0.040554004740444294,
          0.16454145362483572,
          -0.2107631247480194,
          -0.5042318422590646,
          0.040151256820940895,
          0.19883089907189794,
          -0.2086170739719036,
          0.04911446373731406,
          0.2788229769057104,
          -0.004652256355920199,
          0.15924492266946202,
          0.138846055111898,
          0.1704672085852765,
          -0.017975912886203066,
          0.12775770166414893,
          0.07275270618478703,
          -0.06004599037076192
        ],
        [
          -0.04247278412124105,
          0.0033854103576635756,
          0.046121762325293025,
          0.0027847769417513905,
          -0.028085647760804425,
          0.09389959488873464,
          0.11350195942264557,
          0.1763740630369354,
          0.24584860587223806,
          0.21334209327226464,
          0.1006114213463189,
          0.20995980889981591,
          -0.1488807529001996,
          -0.10584808398382517,
          -0.07443426484848263,
          0.16059951597558977,
          0.04011923814834136,
          -0.0596718881320144,
          -0.024876176739782048,
          -0.07274884926926772,
          -0.35974941262111876,
          0.24692844166421157,
          -0.016871208774367742,
          0.06723816341313554,
          -0.2502878867964153,
          -0.0027252636459471516,
          0.1404155491279632,
          -0.04560635358456788,
          0.09483903524569785,
          -0.28389739950262494,
          -0.21461716479055937,
          0.0333298163865452,
          0.16768059569867305,
          0.09349555220671546,
          -0.07237353886218025,
          -0.21783650809515728,
          0.02367064585430391,
          0.15036680691152893,
          0.09566138975208115,
          -0.024548774801049156,
          0.1051976242636632,
          0.1010818390525189,
          -0.2080487523095458,
          -0.08602245248925024,
          -0.08643472149462189,
          -0.0844451969637729,
          -0.05355104732933105,
          0.23885745489964175,
          0.18177246700225322,
          0.0438841880004355,
          0.029970624678571162,
          0.07154676021241525,
          -0.06386049065029077,
          -0.04222339880732219,
          0.21375336383296634,
          -0.08870290485612826,
          0.2976174062488642,
          0.19447283141437727,
          -0.11374234330399384,
          0.035849065838654305,
          0.02534889736181126,
          0.08534223116027631,
          0.09069555476918022,
          -0.14617152091101562,
          -0.15841298793153144,
          -0.49565514420917145,
          -0.23042278487580112,
          0.23739217818011063,
          0.22165776549320246,
          0.1780555186694387,
          0.07199505408198965,
          0.1670405629436175,
          -0.14755930667614664,
          0.10009129896745392,
          0.088759448888298,
          0.14382117654390678,
          -0.25194581368929597,
          0.17742204082055815,
          -0.12010164019988466,
          -0.19045598046808473
        ],
        [
          0.03728089531740834,
          0.40595115777496943,
          0.3321668113361388,
          0.08829427306357804,
          0.003187198093777977,
          -0.13506008853098522,
          0.2713039695249151,
          0.29976481849984815,
          -0.3127749563119553,
          -0.0951500925552428,
          -0.20621664482309318,
          0.2959094491783365,
          0.12681856200251548,
          0.713186194094814,
          -0.037323023836185,
          -0.1463538601552432,
          -0.010043874378880388,
          -0.044961107648681,
          -0.012131731417461595,
          0.12968029439450335,
          0.022978638083115073,
          0.23763962019890217,
          0.3800816120767369,
          0.12780810188020966,
          0.3773488256279119,
          -0.168263864437369,
          0.03675147876919246,
          -0.009022391821605136,
          -0.14276732346652896,
          0.05532841773263653,
          0.13833329513836984,
          0.11648775996252325,
          0.050068975020350605,
          -0.15294305737341243,
          -0.16843046344020596,
          0.019989756276658412,
          0.13647359918038937,
          -0.07856459145650954,
          -0.01217815057763485,
          0.3171433626051588,
          0.008420338893825702,
          -0.1693931099566677,
          0.12344874749156513,
          -0.1849850904176159,
          -0.1371554658935774,
          0.12989164041600174,
          -0.20154902973899663,
          0.05126641152845823,
          -0.3727033001668711,
          -0.038733393907934094,
          0.03722507716027674,
          0.026805089810805996,
          0.10579853813281066,
          0.10436587978767324,
          -0.0762359084220297,
          -0.0901914927373987,
          0.12317372774655902,
          -0.014108816219598549,
          -0.45310518778485154,
          0.034645682124161185,
          0.6586609898989934,
          -0.009628655842518813,
          0.3331643905730851,
          -0.16663615688103856,
          0.027589963829649296,
          -0.07941510329727743,
          -0.1992064958788398,
          0.00971204836136114,
          0.08621284834009042,
          0.30061708889961103,
          0.21251003051877776,
          -0.23542001745604682,
          0.15497536302418508,
          0.20354010761453484,
          -0.0798668782651904,
          -0.008925753003809603,
          0.19004640200734116,
          0.11533174185568039,
          0.16029510293294175,
          0.0412036019829927
        ],
        [
          -0.11302961843833524,
          -0.009547934483563048,
          -0.06369145354690217,
          0.13015989972344952,
          -0.08652822816600712,
          -0.041835393945674086,
          -0.01219541146032952,
          -0.10697557492272235,
          0.04593394370327527,
          0.11899418875621662,
          -0.09857740562824188,
          0.1816234305051469,
          0.09546430781681225,
          -0.0885311376229669,
          -0.06674728988094622,
          0.13659376197434442,
          -0.05106661576051016,
          0.04944048919040966,
          -0.03945310296335978,
          0.08750618606150998,
          -0.11587960507062219,
          -0.015516878208679561,
          -0.09170594488794417,
          0.11314303541283308,
          -0.30466883531120353,
          -0.03122026740545451,
          -0.035892002751471405,
          0.11090976474946251,
          -0.0811520855534025,
          0.06252874958801376,
          0.015769894368363933,
          0.0676150508405831,
          0.1257230579867907,
          -0.1672537413354942,
          -0.0302093106665787,
          0.05284753708437117,
          0.13081823562683673,
          0.041239230268689864,
          0.1366498964195723,
          -0.36132319400279944,
          -0.040900151190682445,
          0.12142843250031096,
          -0.3309818697525968,
          -0.26427231094381737,
          -0.10031538051242327,
          -0.08326605439236803,
          0.10261265207005768,
          0.07941564075334685,
          -0.16688520798559534,
          -0.04629171940765813,
          -0.06564154402226496,
          0.11807043825308496,
          0.14921003068129016,
          -0.004725981538879421,
          -0.08112367018583225,
          -0.13373851462657932,
          -0.27173138084089615,
          0.22016255634967288,
          0.35637465956274395,
          0.04448795448793443,
          -0.0013022962381614048,
          -0.1322146408463009,
          0.10458470750253412,
          -0.0463072142565208,
          0.21700716332302208,
          -0.00022801153679642588,
          -0.10373985239823338,
          0.031128672140338192,
          -0.08279362079346655,
          0.16496140173204288,
          0.07822409664793631,
          0.08706154673993337,
          0.001961184163357642,
          -0.06712197204279471,
          0.06146734776564548,
          -0.004468534143255053,
          0.20001994510499493,
          0.0982895562149097,
          -0.038443734780476656,
          0.029921344919063907
        ],
        [
          0.0862411441042483,
          -0.24488089473443617,
          -0.0889676210129341,
          -0.12229886541338472,
          0.29592163254598136,
          -0.11878753609220734,
          0.24685756321624255,
          0.0695391015747842,
          0.20190316406831763,
          0.17117054504123821,
          -0.028672316441980806,
          0.12818676942424542,
          0.20942465857588877,
          0.06054160369940593,
          0.0955828590121366,
          -0.15038976406290155,
          -0.003929729407249647,
          -0.21552207474157078,
          -0.07128461241797888,
          -0.1007828946913284,
          0.19009117843493506,
          0.14608131835838198,
          0.6115507949257374,
          -0.1144760405244584,
          0.09808643633857314,
          -0.11469501373258448,
          -0.024030413038742263,
          -0.20759445828777695,
          0.11245399317865797,
          0.09395173124855574,
          -0.09772001071312991,
          -0.03395266774929894,
          0.13012004402015714,
          -0.17401652886284208,
          0.007269546393676971,
          -0.14794825966327504,
          0.17732742115644232,
          0.09330356802405174,
          -0.021739410233121533,
          0.029758297036772168,
          0.10192500331503501,
          -0.05799110148087333,
          0.09407153669273707,
          0.10904684422208206,
          0.06268719554369465,
          -0.2422545066400827,
          -0.12053464999164384,
          0.22495414883743858,
          0.1559261574860277,
          -0.06885001283963639,
          0.15368314699448557,
          -0.1652610232258697,
          -0.15238034886911908,
          0.011153791331287572,
          -0.2080156620197641,
          -0.2613405988230248,
          0.046715922883942204,
          0.03192367074555546,
          0.3075132312260714,
          -0.23822691993819442,
          0.18711445148215056,
          0.10517594653240796,
          -0.15488127232152146,
          0.3641595284567446,
          9.135738016077329e-05,
          0.20198137965927743,
          -0.0036004608149950244,
          0.11711262932665664,
          -0.13769685254902256,
          0.22103994520374295,
          -0.27118454734393554,
          0.03517608714883953,
          0.1577256888979025,
          0.13028091276255943,
          -0.04096985336934339,
          0.014815514018301008,
          0.02258233293965224,
          -0.037976893971967664,
          0.04762122587099532,
          0.146170697117337
        ],
        [
          -0.012194139611455644,
          0.20614088421787943,
          0.05324311567143521,
          -0.012137051569212439,
          -0.03977491416505085,
          -0.2123199472588188,
          0.012491512862589696,
          -0.010820312266218565,
          0.07389170210166614,
          -0.014339422617895666,
          0.08219150931876625,
          0.026253647886992706,
          0.058943489982440256,
          -0.03803529008293243,
          0.15970568569951693,
          0.023696980485587493,
          0.1704469567224141,
          -0.08010446709757188,
          0.04839113672519579,
          0.04156698699941942,
          0.021373479057678488,
          -0.08171634162874397,
          0.007604379819230909,
          0.17230009401603888,
          0.05376168121902319,
          -0.009891699150790384,
          0.07744408423571243,
          0.09253504509225904,
          0.06596439415143893,
          0.04423181708476458,
          -0.01437219862309539,
          0.13615179649424808,
          0.02476384458790626,
          0.10512738568317227,
          0.0030531593117686007,
          0.03523333645489251,
          -0.04306174771355225,
          0.18653058664280117,
          0.17060557505802268,
          0.3079643304905358,
          -0.045282680933472506,
          -0.10633760787235778,
          0.16839404833677885,
          0.18847617700720215,
          0.04219715771841778,
          0.09260006623466463,
          0.19801683800811357,
          0.017650508957342034,
          0.08185078966366086,
          -0.07872884916166423,
          0.11320871331309271,
          0.004060991583942195,
          0.04512131680649459,
          0.05741703221872291,
          0.12236237247761976,
          0.09602869655052054,
          0.14959572254685316,
          -0.16764349775853907,
          -0.06344001976226597,
          0.03403795121377444,
          -0.1355151495943908,
          0.14792087995219438,
          0.10481256481215305,
          -0.03146746375545594,
          -0.09222602042205805,
          0.0451741015863626,
          0.08186996508423804,
          -0.0966548897024835,
          0.002934415087754569,
          -0.08170892394647625,
          -0.12415282815865858,
          -0.00205445889525958,
          -0.09384650109195797,
          -0.03518870689320016,
          -0.011424942216942832,
          0.025622556650555694,
          0.005111210463398588,
          -0.1045067517358803,
          0.045806077200050414,
          -0.17315399250891256
        ],
        [
          -0.005544801660880307,
          0.2397109322081147,
          -0.317956754534345,
          0.06078992529388199,
          -0.15604689189315682,
          0.02338210885191699,
          -0.13750946894438867,
          -0.2396429344098557,
          -0.1378083182610038,
          -0.0884414235408578,
          0.20282435481216404,
          -0.1934171062197567,
          0.30434381614728234,
          -0.06637792266777758,
          0.09452755740359371,
          0.10496894135849955,
          0.23008268549226338,
          0.04842078295114365,
          0.055080461411211375,
          0.10378470485478448,
          -0.11727151534312899,
          -0.008308025377802715,
          -0.06900578894967259,
          0.10901065156232422,
          -0.1258867137012627,
          -0.05571440041163418,
          -0.06396889457327352,
          0.09471624182627757,
          -0.12742295812244547,
          0.008696827069037115,
          -0.27557787728047684,
          0.015965565827622753,
          0.09777006107694004,
          0.007741614744204814,
          -0.08075177691125358,
          0.07499166636304895,
          -0.10896427592770347,
          0.13813513702731586,
          -0.07050713273063074,
          -0.23502894658611637,
          -0.14760616716883537,
          0.06522259826298131,
          -0.05939229811972225,
          0.08871326815786738,
          0.052314323965370654,
          0.18056175144233727,
          0.006726664533395738,
          0.07516066195452484,
          -0.1060077562152284,
          0.24446199296397425,
          0.005652610566104912,
          -0.1545789074569037,
          0.07300915444310432,
          -0.054952740910824874,
          -0.006557047437092141,
          0.020430035475771526,
          -0.14912798533899702,
          -0.13980281675401052,
          0.2079721253087049,
          -0.03796645704604451,
          -0.13607437366742134,
          0.18251971437109982,
          0.10539452694672917,
          -0.033561115514009726,
          -0.10608991125944083,
          0.2077013126021763,
          -0.1261097837075469,
          0.09681968299630692,
          -0.062483214053805435,
          0.023035991715211767,
          -0.06057976283881103,
          0.01891908228667948,
          -0.015269587235393638,
          -0.09948614518123675,
          0.013436730684285698,
          0.09658971584753724,
          0.00863677930266203,
          -0.12861178884526986,
          0.05039583448150533,
          -0.012134201731163198
        ],
        [
          -0.15786486226864946,
          0.2596793946179256,
          -0.2009372987288167,
          0.062037120506595225,
          0.06964731246089267,
          -0.16000387257058818,
          0.11713181263053621,
          0.24335258163994586,
          0.1840828672496412,
          -0.024055924641478824,
          -0.03493396951641167,
          0.13888413328165863,
          -0.34549970026418864,
          0.31666802047904874,
          0.21186120207114723,
          0.05422069602950565,
          -0.06402376947045281,
          -0.019468811237025718,
          0.012006416180493045,
          -0.2015150959041985,
          0.036777957985560446,
          -0.14007749955448565,
          0.20136621278008546,
          0.09974895326448892,
          0.1307876916659447,
          -0.15723342251859176,
          -0.03275701039472026,
          0.07658406720985089,
          -0.08508302055653974,
          0.03207867776699091,
          0.19174794148375035,
          0.1442750296452412,
          0.01263782900772326,
          -0.04466181411465643,
          0.10268910983450406,
          -0.006792065386136028,
          0.11309305471411081,
          0.031173927897537812,
          0.07770373415373429,
          -0.23659276358257436,
          0.3455140382967585,
          -0.04992489385286117,
          -0.20431213398449674,
          -0.33200098408567524,
          0.04573042209734146,
          0.01362412946848345,
          -0.04311945591155597,
          0.049311792374636024,
          0.20574741446908132,
          0.03285190967285268,
          0.11702744275542029,
          -0.019378388810196982,
          -0.12214771142858387,
          0.15218434758329047,
          -0.07205876495660683,
          -0.1757471012958785,
          0.1778451916196711,
          -0.14779971292292385,
          0.01509713260525406,
          0.013342622850166502,
          -0.007959308754103002,
          0.14062425193934786,
          -0.10820245362713757,
          0.10549238740149915,
          0.08354635789433551,
          -0.1131295410264954,
          -0.3927912834198171,
          0.04105864895941203,
          -0.13604691029916033,
          -0.03600663641065508,
          -0.13137669908491287,
          0.2508392560414023,
          0.006747947272173288,
          0.13457187518181452,
          0.020759658228474916,
          -0.058862811856319634,
          0.10528924717958985,
          -0.01929630988275761,
          0.12230836632638827,
          -0.13631322036905436
        ],
        [
          0.045731791290538455,
          0.12610954615644404,
          -0.4040996692512223,
          0.08265040983132162,
          -0.21812019969911953,
          -0.17019257725834283,
          -0.043268052602933545,
          0.07431403461433786,
          0.02335433262877042,
          0.024415006968233732,
          -0.043964205849175424,
          -0.0244734059443356,
          0.20248591333107788,
          -0.1656637561642892,
          0.05731298411045062,
          0.13150166427685075,
          -0.09077653239045534,
          0.0734168957469719,
          -0.15594395730986038,
          0.09123649758390937,
          -0.10394389289976105,
          0.127766365783304,
          -0.41148942947532113,
          0.04910472577197384,
          -0.027894466414666846,
          -0.015636165351286344,
          -0.08530099402257879,
          -0.11536566651868424,
          0.08314313956978936,
          -0.07641723169641373,
          -0.31755422579464243,
          -0.024409778093361534,
          0.06535523762629207,
          -0.23801379768725572,
          0.08956230104663812,
          0.20768983231754545,
          -0.011422475704805765,
          0.1165506284880297,
          0.17772956750161648,
          -0.2889019444139276,
          -0.3498056950922911,
          -0.018630200585777978,
          -0.05729130695070603,
          -0.23647053678795643,
          -0.07561763902014924,
          0.15141175266010928,
          0.21576609694492566,
          -0.2551898796151086,
          -0.09234862314552661,
          0.11520974630978692,
          0.09856878077346004,
          0.13968477884436098,
          0.23539221425400178,
          0.029342633390479853,
          -0.04993102664249581,
          -0.05734649026316182,
          -0.09151970551835671,
          0.11513332335494864,
          0.5138588982324763,
          -0.06709624963205264,
          -0.2584924671799183,
          0.11491810626343305,
          -0.06377739784484807,
          -0.14411799929453273,
          -0.26596500440739956,
          0.3984332945805992,
          0.11500656303384353,
          0.17479252026414105,
          -0.27233562645033177,
          -0.17201605812648482,
          -0.032910135657172095,
          -0.1190920211150546,
          0.10451679836121391,
          -0.2528648564650388,
          -0.09926685305059715,
          0.0033516181193159115,
          -0.033680775709517455,
          -0.04857918581872249,
          0.12280383023424117,
          0.14765141075476765
        ],
        [
          -0.016179006919964736,
          -0.1761080884770867,
          0.10975104753187623,
          -0.05114878903811518,
          0.13733453504302273,
          -0.01630846371565171,
          -0.09797677808200017,
          -0.2381785554878776,
          -0.07932240556096744,
          -0.0044270331926790215,
          -0.07625349776027013,
          0.2594757587867941,
          0.24925713448157125,
          -0.3977909699092413,
          0.14432150175917477,
          -0.1553911699917263,
          -0.006964723324447299,
          0.08134644223144571,
          -0.04948083563426354,
          -0.03177248472399259,
          0.07821452881926555,
          0.12668662230419214,
          -0.2434134009468335,
          0.08273629788488383,
          -0.08920099190362546,
          0.32502718919310325,
          -0.022192091202195438,
          -0.19555967176266373,
          -0.06750327247275575,
          -0.26673872910215446,
          -0.050511250547388836,
          0.04601806559180197,
          -0.13182439892291725,
          0.15483897260750024,
          0.21248876735909086,
          0.258557408667739,
          0.07429884928276749,
          0.10798143892131805,
          0.03980324142278908,
          -0.15308109627203054,
          -0.10540351829358788,
          -0.029610997993747286,
          0.06612831125568484,
          0.18574034501220854,
          0.031056405480038195,
          -0.034251851496992704,
          0.11734700551448204,
          -0.0986433897967303,
          0.10268375407514205,
          0.14645939575650693,
          -0.12156455417585878,
          0.14083644117391866,
          -0.050920980807170356,
          -0.049869073386301935,
          0.05328259924623941,
          -0.02746082115039608,
          0.035871917475262645,
          0.2890640128016154,
          0.252045849937903,
          0.12789107591174595,
          -0.037157875587806824,
          0.0668331925964221,
          -0.11262718491949449,
          0.29654135490551126,
          -0.10503582422812703,
          0.1945407089846828,
          0.45085647244362387,
          -0.05581373242094037,
          0.0008808705481454208,
          0.2821820058626287,
          0.29226653253636037,
          -0.1822290740814045,
          -0.29331228613899546,
          0.05527826885147165,
          -0.07823602253230237,
          -0.19863188551178132,
          0.02246240528117797,
          -0.07588489584890533,
          -0.07810382685761116,
          0.1156749330004363
        ],
        [
          0.007501644158667953,
          0.15456099260540124,
          0.11880391532908804,
          0.0847904352104083,
          0.19902081151827278,
          0.2903208383061272,
          -0.027054053254529337,
          0.13265300951524722,
          -0.09796757436933819,
          0.12765524024486813,
          0.16795817036836555,
          -0.052451297211367064,
          0.13420962011205506,
          -0.0967007348912111,
          -0.043880241379686095,
          -0.016064422577444077,
          0.04597841893497194,
          0.02959991387850813,
          0.23609439543503855,
          -0.07946174252732319,
          -0.17378522449225484,
          0.1079401383897017,
          0.06685015357538689,
          0.0479142961179124,
          -0.1933709515348434,
          -0.09814510797626332,
          -0.15998800203055125,
          0.09249296994476994,
          0.040838636389750674,
          0.08934496546989157,
          0.07917972118396413,
          0.11445696678116389,
          0.05677781585153816,
          -0.06263712912434866,
          0.051362056932572245,
          0.2691511073047482,
          -0.2142191932862912,
          0.2919855356197016,
          0.12846023946679605,
          -0.42020480360719886,
          0.03319080434937855,
          0.061970330388495344,
          0.04564273961809847,
          -0.08236717238461258,
          -0.20924210969533577,
          -0.13147447648893945,
          0.1422254127428435,
          0.06673363332737059,
          0.13345886194434978,
          -0.10356250903569442,
          -0.2365730036896133,
          0.16914971488416586,
          0.10655825014364737,
          0.01527094760844521,
          -0.1827270910625804,
          -0.1251080420286154,
          0.005241392231243208,
          0.17166937205077656,
          0.04466890357480738,
          0.023258015170840314,
          -0.0511747192900884,
          -0.2322257039803227,
          -0.21070679964016742,
          0.09835591267087723,
          0.16205506594152813,
          0.0010093853779726298,
          0.14814941551671268,
          0.3039483149196682,
          0.150883285363338,
          0.14257816486076436,
          0.12292472876946323,
          0.05874455111571609,
          -0.04389881343560788,
          -0.26167707351800257,
          -0.16893130060082148,
          -0.23322117887178972,
          0.27098532982864876,
          -0.3201270826213285,
          -0.027269787292339767,
          -0.152729447339317
        ],
        [
          -0.14510095021518435,
          0.10559112590047436,
          0.08728253644921494,
          0.06250851073996014,
          -0.3233110127428738,
          0.3368901897207366,
          -0.09731463677295646,
          0.056905071372205844,
          0.2212313781431857,
          -0.0694358777111852,
          -0.19940661903281387,
          -0.0641210845793732,
          0.01510982501361837,
          -0.03248424007986396,
          -0.08135351894272,
          0.11431572284165645,
          -0.16959225133594388,
          0.09134172754798384,
          -0.044182728581584396,
          -0.14841016512340408,
          -0.1119638865582148,
          2.8598622468215626e-06,
          0.038673786002867756,
          -0.051685439852235775,
          -0.019609754754601583,
          0.11887115952947082,
          -0.10251559366879906,
          0.17493568180589866,
          0.17807474959968936,
          -0.0764236451398277,
          -0.05792697060660311,
          -0.33154042107125475,
          0.02920549825634681,
          0.019395337143056437,
          0.15245441202488158,
          0.06322744819460933,
          -0.003993678202428532,
          0.019626442414077974,
          0.09803611353305366,
          -0.03428171760525831,
          0.08128459561690234,
          -0.07833986866335016,
          -0.06874463712835613,
          -0.03715378697896835,
          0.07731835873976832,
          -0.32429671757997053,
          0.016979754409215345,
          0.04951337208427871,
          0.2474117913420971,
          -0.061684967229374096,
          -0.08052592431141174,
          0.36345370031614527,
          0.01080869501051132,
          0.1803169094558185,
          -0.05074348847426227,
          0.10672779880853539,
          0.045516604469893626,
          -0.309702180696192,
          -0.18441269412811293,
          -0.023455890712754397,
          0.17660432381921035,
          0.1510162960207234,
          0.2955587066822218,
          -0.1815122420119737,
          -0.11387547988828306,
          0.06714470644021114,
          -0.09624878708120667,
          -0.05051651839270547,
          -0.01575588186442151,
          -0.3020749287251902,
          0.13065918690143452,
          0.1314291917516792,
          0.0010688109228292149,
          -0.17792428892815002,
          -0.024339692001156012,
          0.07776990673144304,
          -0.20529935498485102,
          -0.00796642559499357,
          -0.029627555080227505,
          -0.25625476344435166
        ],
        [
          0.07764850005418077,
          0.013033742714434648,
          0.18791594445369733,
          0.03136150853485002,
          -0.08962682726420099,
          0.01998883151231824,
          0.13287400942836775,
          0.10378942707879249,
          -0.007135664031593334,
          0.04177540917644997,
          -0.030094132162955332,
          0.24119805405683514,
          -0.08954909616157743,
          0.21706784788642344,
          0.0677409732756606,
          -0.1546585068962698,
          -0.05804853681195332,
          -0.05989803020969263,
          0.018554996113106105,
          -0.017295820390137554,
          -0.04287123015804564,
          0.10929630541429076,
          -0.008411743492058348,
          -0.08017624794908289,
          0.058898508448518384,
          0.003851170852196747,
          0.08415661547652072,
          0.04262951607918662,
          0.01977907565337597,
          -0.028750357680785616,
          -0.0474912133329634,
          0.13575262220185436,
          -0.09090654147979699,
          -0.0441869016762365,
          -0.20331063669016708,
          -0.23129714798035603,
          -0.1450938855845488,
          -0.04454220256246901,
          -0.1057999541801273,
          0.13396725127099182,
          -0.11121793360478427,
          -0.2214324129367436,
          0.08796929804152932,
          -0.195323620116305,
          -0.10173562873092913,
          0.0713740860337802,
          -0.14831900831319128,
          -0.16906010922394984,
          -0.0709131163682863,
          -0.20192976056255676,
          -0.048847782475974766,
          -0.14272645056440486,
          0.15852821586461252,
          -0.08190219088959497,
          0.027903315023511878,
          0.027862509558610787,
          -0.009090703414767629,
          -0.08355584630607416,
          -0.29776319597157874,
          -0.003882524431536099,
          -0.10655946617766272,
          -0.041007838437850594,
          -0.049062687126618654,
          0.08826375717560858,
          0.03331049003259462,
          -0.01669256074996344,
          -0.049734525041350355,
          0.15711507303647956,
          -0.11592915580677003,
          -0.1391373290206752,
          0.002393489481301943,
          0.02741256536363717,
          0.15544491120649714,
          0.18683137783157175,
          0.07102799620041313,
          0.05564402744509216,
          -0.16109122896715053,
          0.019783565197440303,
          -0.06845925319453773,
          -0.1571020632047806
        ],
        [
          0.17769383560840254,
          -0.014074636574455816,
          0.24036618545231386,
          0.22416609416532013,
          -0.09558371761198799,
          0.023977368405213664,
          -0.1441830262074143,
          0.06291714810052343,
          0.027370046437616643,
          0.006987481645381314,
          0.010324613799530284,
          0.15588491363256513,
          0.07673449117415056,
          -0.22711014115847203,
          0.04894522568161463,
          -0.16540258111239334,
          -0.03911830331244351,
          -0.03734630748956551,
          0.0022479197915555764,
          -0.05462360973878464,
          0.14162609332407944,
          -0.09047331455906318,
          -0.20565931556832043,
          0.034450254784492235,
          0.3364232350988413,
          0.20413955193364847,
          0.04753532448267844,
          0.04635412179493471,
          0.1594372284993912,
          -0.11651165710255837,
          0.09290629834005104,
          0.08095220218788632,
          0.025030807682125115,
          0.019959602605773348,
          -0.0646021486847246,
          0.19349509689970038,
          -0.1143623787262942,
          -0.032914749442160454,
          0.10025207814757334,
          -0.17454041964055253,
          0.07721561192686023,
          0.016561819777825285,
          0.08227959576161738,
          -0.09128030569615478,
          0.15839954407880313,
          0.06101139872779632,
          -0.11789260284464312,
          -0.006569667314368511,
          -0.0777151410607147,
          0.13042692352466775,
          -0.0625027731030923,
          -0.123969465017902,
          0.04887495285080531,
          -0.1715441584027917,
          -0.025572768651197963,
          -0.12306558152140536,
          -0.25083789824457037,
          0.07045359174149599,
          0.024887469716353982,
          -0.10363726736109047,
          0.2560195058327965,
          0.15286587539843893,
          0.07944164182733368,
          -0.057592195812826305,
          -0.018949731944701443,
          -0.23026354064152832,
          0.24615091903778705,
          0.14182477472026514,
          -0.11365899875132045,
          -0.06665007625956736,
          -0.047466541676718134,
          0.3506332901121659,
          -0.17019706525573777,
          -0.016304334765519474,
          -0.1155681461277094,
          -0.08376384495009363,
          -0.1899423338853502,
          0.019604728566540046,
          0.1696953045094585,
          -0.15346850234664491
        ],
        [
          0.11267945675637596,
          0.4014722000343389,
          -0.11587222802522044,
          0.15719243096204755,
          -0.28599230562915123,
          0.19948513331682752,
          -0.17020705851147294,
          0.249783935628347,
          -0.3138237831139294,
          0.3676700172638806,
          -0.017936138168741133,
          0.1311162872168824,
          0.045894130072823655,
          -0.026899948197978654,
          -0.12200353444367482,
          -0.16477945974996194,
          0.0845617396260919,
          -0.2383404761016262,
          0.03012274216270273,
          -0.024579327461947735,
          0.05817664345303315,
          0.18195383357938236,
          -0.2480494644224451,
          -0.08393476140680217,
          0.09368040594152671,
          0.1442469463103088,
          -0.03303678037106461,
          -0.19971361851961422,
          -0.01005754202325273,
          -0.15081875190018162,
          0.21778298224894121,
          -0.28532663687431,
          -0.018373007917861565,
          -0.09333509913959491,
          -0.1223771166861252,
          0.09170065819317656,
          0.004828985792122228,
          -0.13140994864057898,
          -0.07731469808844381,
          0.0885292724181561,
          0.10730125404509934,
          -0.10674901088572009,
          0.14965460399961536,
          -0.08137022743383225,
          0.17091843346193822,
          -0.29051449806149887,
          -0.0026990259688287432,
          -0.1742334066169549,
          0.13987550338520868,
          0.41082302926395486,
          0.09461533490672815,
          -0.10938432438778846,
          -0.13774853516625,
          0.10512298139342653,
          -0.006383135812082489,
          0.2988846635747609,
          0.1267706424967078,
          0.1525404949858024,
          -0.10860818059962857,
          0.25617658347339567,
          -0.2304872161052936,
          0.016282081821886823,
          -0.10680052591073298,
          -0.19943658855154944,
          0.2298173594011066,
          -0.1323411802520056,
          -0.21043236440679222,
          -0.055631077309628046,
          0.12525392347278608,
          -0.21722422013559867,
          -0.15782298421908117,
          0.22334367349133702,
          -0.32420738899721174,
          0.050259356197529824,
          0.12146816674183111,
          -0.026626626379155402,
          0.056848094921886264,
          -0.15830203060656944,
          -0.22179545119315205,
          -0.19324765742806116
        ],
        [
          -0.22661356426349166,
          -0.4116298707712287,
          -0.4198537000556152,
          0.271486832481152,
          0.22377854091587734,
          -0.2868303650095321,
          -0.020591460113874444,
          -0.12282518637512041,
          -0.2767965044880392,
          -0.04012434052005137,
          -0.1386827860037668,
          0.1869339276280937,
          -0.015697405800345836,
          -0.0045970454968114575,
          0.048799631435288184,
          0.006235878942216516,
          0.02109484885479574,
          -0.37161462077330704,
          -0.24516919745822485,
          -0.03982407582617224,
          -0.051377151426474324,
          0.08578311842815273,
          0.14967300946069778,
          0.08391236412823279,
          0.09961122704681126,
          -0.3822531040765695,
          0.12113915167446587,
          0.059772316733496325,
          0.15873566157808752,
          0.1344458381718352,
          0.09603953037464655,
          0.03700501050487281,
          0.005514221881083992,
          -0.08185324778961243,
          -0.010112335241140216,
          -0.08273419782398547,
          0.2541441159264102,
          -0.17654899622693687,
          -0.27227197036658857,
          0.09891821325592746,
          -0.09110349370909557,
          0.011684955067928817,
          -0.2921438056610781,
          -0.12646261050696045,
          -0.04370949815945698,
          0.20333691687000258,
          0.023652999174601043,
          0.032076492209285955,
          -0.028426170295453117,
          -0.0759224187312217,
          -0.09584095055482127,
          0.06364098162134327,
          0.179283330528714,
          -0.0919076071113792,
          0.16513848402633177,
          -0.007137931496176477,
          0.1719233638717478,
          0.09664418256964696,
          -0.036802122113653774,
          -0.08678941229455507,
          0.06901335523162877,
          -0.038168881371428744,
          0.22699580071757344,
          -0.004473753847649861,
          0.007347993181105722,
          0.051595105906363445,
          -0.09616862815942061,
          0.01446503588487201,
          0.14248548301809721,
          0.12142775218340318,
          0.11360614688519718,
          0.015255021663559968,
          -0.27368516627786926,
          0.11252027810036368,
          -0.060836618268402004,
          0.14226368068146764,
          -0.08744620011019415,
          -0.25519703176205216,
          0.042338520280124664,
          0.06762597249398859
        ],
        [
          -0.3787918643040738,
          0.2754024462341519,
          -0.15654611676759855,
          -0.20306761265496903,
          0.2578822376487115,
          0.17949439393042793,
          -0.07647495608145007,
          0.12975080122076657,
          -0.1389121430773647,
          -0.03655058895982807,
          0.1036642341679047,
          -0.06739225764041305,
          -0.2792752633118906,
          0.3237385077097819,
          -0.030713315711649584,
          -0.22624607072688183,
          0.19199877880676536,
          -0.44836198231524815,
          -0.07404619497726218,
          0.05337032773147424,
          -0.14492516820463333,
          0.07923590869899043,
          -0.15702373331983505,
          -0.19591983440659294,
          -0.1134637290231393,
          -0.19375592227807023,
          -0.2712678125809956,
          0.07886813075336005,
          0.09401979585230415,
          -0.19317225961190224,
          -0.17522339426389236,
          -0.09295663564849838,
          0.05567897535683809,
          -0.02068351585325593,
          -0.05453057154937361,
          -0.0998225056811959,
          0.23247812562238956,
          0.07938120842890546,
          -0.17556060949547106,
          0.14230729163698358,
          0.04395752051960419,
          -0.047034459630324946,
          -0.24745003984008798,
          -0.19888766227826518,
          -0.11090510944747282,
          -0.2506555561344909,
          -0.19751971695223466,
          -0.14557823256779123,
          -0.2736360130136858,
          0.021704045005437867,
          0.10714045733998803,
          -0.17349278069677845,
          0.02913285815870789,
          -0.022234272330203936,
          -0.18074531558502768,
          -0.10335690265200026,
          0.0035185063384920116,
          -0.010902569222195449,
          -0.13241393581780464,
          0.09392378434552702,
          0.32572152407517074,
          -0.016473287003237042,
          0.061233783031327794,
          0.14720791693591753,
          -0.1937856399495824,
          0.022089125647199927,
          -0.3709356612863229,
          -0.07598973462942632,
          0.1997980135252945,
          0.07150043019906956,
          -0.19419422319907007,
          0.09622302741834068,
          0.17917249654815018,
          0.015114008810352337,
          -0.04683369261003744,
          -0.13131830106335365,
          -0.014046902355907425,
          0.3127836385459153,
          -0.2701421707417344,
          -0.2546392539446519
        ],
        [
          0.07822058638555182,
          -0.2273051298751126,
          -0.16120218096851013,
          0.07321638394600916,
          -0.016599162670008147,
          -0.09372535763246462,
          -0.16865990042065626,
          0.1048907358586092,
          0.3886806059637318,
          0.06707564546463217,
          -0.037864964104550286,
          0.09296036755228371,
          0.15884327344709828,
          -0.18322694839767542,
          0.3849253644682538,
          0.018425582288137957,
          -0.36699245248992884,
          0.24803643100569428,
          -0.26411499104754155,
          0.09701163780057434,
          0.25742112956494523,
          0.23480074959993796,
          -0.32256989624204535,
          0.0020865172992217992,
          0.13453453775929627,
          0.1038521332387403,
          0.16057812865509832,
          0.0800799492516007,
          0.019393944567751037,
          -0.2631774233048447,
          0.09534854836777644,
          -0.29905983522265794,
          0.01793994105256737,
          -0.10689801817706085,
          0.38553606479291513,
          0.29112634530091164,
          -0.14472446386168064,
          0.21347522659508517,
          0.09831906174917925,
          -0.050584934983327674,
          -0.13993556850070968,
          -0.1402827207224117,
          0.36902939853782546,
          -0.07477134182103976,
          0.11388650455468938,
          -0.2582722055892511,
          -0.003024886901332317,
          -0.07229158981194483,
          -0.017082721348193615,
          -0.06822316673347764,
          0.14049978261306786,
          0.051755487504668816,
          -0.08971864656306285,
          0.09033813420746319,
          -0.045095398096363225,
          -0.16040330925914362,
          -0.17313589068482782,
          0.002397161864657515,
          0.5990815141501766,
          -0.0027508869460174186,
          -0.06408875837115195,
          0.014135388699174061,
          -0.03448393812595279,
          -0.003002079860828671,
          0.10003642319523481,
          0.04717606139277833,
          0.15067568022542296,
          0.28385047488708853,
          -0.21978226650233953,
          0.20829635037478894,
          -0.18979133199079998,
          -0.19144927376547924,
          -0.015773241420382153,
          -0.20183728783342897,
          -0.028636087592586502,
          0.16719502563982647,
          -0.029062416659136454,
          0.02918789689667071,
          0.3941149353459823,
          0.17473769746780518
        ],
        [
          -0.08766728992124097,
          -0.23923064546578773,
          0.3066991937457583,
          0.15208898828750309,
          -0.1874171240377137,
          0.05462135362420315,
          -0.13598898075671986,
          0.07149571453770291,
          0.2054222226674054,
          0.1492663827494774,
          0.03277887485470281,
          0.06910947777118986,
          -0.09394099982107465,
          -0.06715105827735429,
          0.07325387246516625,
          -0.00018334132456898232,
          0.2026747452332603,
          -0.23910757060328444,
          0.1402662868546318,
          -0.2337467883104051,
          0.13170509580716372,
          0.07755883048785545,
          0.16409993529871597,
          0.0609464505747216,
          0.22666874894834563,
          0.23683998341344867,
          -0.05520916669387241,
          -0.2888375805255897,
          -0.040652154020712775,
          0.02231033632588128,
          -0.03650468415960155,
          -0.13320225755376344,
          0.10450144639856077,
          0.1910670612469744,
          -0.23378296374382485,
          0.048842235802690495,
          0.08173012523056837,
          0.16747324090529175,
          0.11639138359409852,
          -0.008215285185355888,
          0.04220022529547052,
          0.09432865450097414,
          0.09763549172123479,
          0.1336443749479195,
          -0.05891904163653097,
          0.11226034708797217,
          0.05391189908326012,
          -0.10498468246980355,
          0.10979622035815265,
          -0.03760271356227505,
          0.038734231472090284,
          0.08164104587630916,
          0.15005385601734111,
          0.22080902533631808,
          -0.19613932862602024,
          -0.004927359805124244,
          -0.2645137495547334,
          -0.03284208638291003,
          0.05527599246931732,
          -0.02037361184298486,
          0.3801665802074295,
          0.061517829807864265,
          -0.04498869510604691,
          0.08592723887680424,
          0.11862266527759621,
          -0.16677276255592133,
          -0.11782192620902653,
          -0.12209062603878934,
          -0.2591192269558119,
          0.31146800017184384,
          0.020809016215897393,
          -0.22079107048614174,
          0.3015506455646211,
          0.07637620634934904,
          0.03220316834375693,
          0.027224366483171676,
          -0.1005028998157536,
          0.16822605696408338,
          -0.005965030605793631,
          0.22033958300529613
        ],
        [
          -0.06705001058975205,
          0.038257709995920174,
          -0.1219987323169391,
          0.09468517310681257,
          -0.23455067387410014,
          -0.3156489954190068,
          -0.012640884023097182,
          -0.058107920694817045,
          -0.020862913397396838,
          -0.12288471366764084,
          0.12462468104237792,
          0.12025331201015532,
          0.1793048561722807,
          0.024789924776491497,
          0.06409093594022962,
          -0.02315032112584592,
          0.035504756775224924,
          -0.1785935920494424,
          -0.1798343172897889,
          -0.10680462466417759,
          0.3201757414495159,
          -0.1101534904330998,
          0.08562589250203748,
          -0.07211979460905982,
          0.020692477554205974,
          0.0018301953272559291,
          0.011222796252771972,
          0.18342922984962998,
          -0.08229412947054188,
          0.09357546864363879,
          -0.3797051845249761,
          0.13154242123035326,
          0.026544241988738226,
          0.08910943070769232,
          0.10018058326785649,
          -0.05984298932461716,
          0.018945926701816218,
          0.14916804545987492,
          0.01056705434992681,
          0.011455336918882526,
          -0.08075054174871192,
          -0.07649073936503714,
          -0.01752033013195347,
          0.09513719599014003,
          0.12521086553620092,
          0.37268225049690173,
          0.0301597494768874,
          0.004677588069526911,
          -0.16669973520626827,
          -0.016221036797187716,
          -0.07581959867951202,
          -0.13688348582179377,
          0.025202376406904557,
          0.1389084933418996,
          -0.29638898023185084,
          0.14382213572948524,
          0.1565466234135287,
          -0.0740846328878881,
          -0.0627105073388109,
          0.08110780256066066,
          -0.075389037061549,
          -0.15534058803969614,
          0.2725350225589784,
          -0.2456756271463646,
          -0.13009789563537896,
          0.051092648223806,
          -0.2197636267139614,
          0.010761536914964882,
          0.010460433443084345,
          0.13454629691401976,
          -0.026835342924195486,
          -0.12840332797571472,
          -0.164857868302838,
          -0.1852194447006711,
          0.07510534537683251,
          -0.08534072238821205,
          0.09748324524473986,
          -0.03689236297919011,
          -0.09202350602562802,
          0.027922460786152063
        ],
        [
          -0.18356037379068296,
          -0.2943616331294611,
          0.00036705397121761046,
          -0.21244110654214998,
          0.08539216357885815,
          -0.1533633736108315,
          0.2684278175616499,
          0.12867129681520265,
          -0.1893475715021797,
          0.0920473039652466,
          -0.21489505983814572,
          0.18019243615469455,
          0.06936351397112059,
          0.022641451662515733,
          0.10375686836257221,
          -0.18034780832870032,
          0.0021996185918307276,
          -0.16166427633316385,
          -0.002986998891467334,
          -0.08299468276786813,
          0.006399003699038161,
          0.015299590531426897,
          0.3273097928758124,
          0.009729885607716504,
          -0.14118354402216968,
          -0.19821894560134734,
          -0.06561380348325681,
          -0.07002387525752436,
          0.07658034603164798,
          0.041970283544239234,
          -0.05669187137128453,
          -0.08591102727141725,
          -0.014332519781071496,
          -0.0023241237288172145,
          -0.10474220922920069,
          -0.16141504974809676,
          0.12323582353386457,
          -0.08233969627106706,
          -0.3465911024556478,
          0.13533514671034153,
          0.09911796310007234,
          0.20437310993488791,
          -0.07655746550886353,
          0.17147460046696206,
          -0.1683773749136655,
          -0.31774424474509905,
          -0.06771286385887552,
          0.004979272606230183,
          0.12377384425775331,
          -0.027533341581663928,
          0.0829095898728326,
          -0.00624936612755384,
          -0.10990884968530694,
          -0.1964135585979508,
          0.1319015808454354,
          -0.16206655165642722,
          -0.08096272969325208,
          -0.06763705653505785,
          -0.5754502857651161,
          -0.255716444827048,
          0.22979769579293705,
          0.14044971046376042,
          -0.009250868874261336,
          -0.12597796161465177,
          -0.2776188589286097,
          0.1333926739239369,
          0.2588134803012818,
          0.09798523713575495,
          0.0024302457240422087,
          0.17754168967275533,
          0.1431044396089512,
          -0.03977296571667693,
          0.13962197986886465,
          -0.015767599169848705,
          -0.17305205821916556,
          -0.20651034211628794,
          0.08810269753378414,
          0.045219835968640126,
          -0.011957657497752901,
          -0.18320549513076592
        ],
        [
          -0.0033440995857167404,
          0.011650346020658741,
          0.00014073880317268036,
          -0.1639629194479527,
          -0.07001070459671872,
          -0.006232835383553066,
          0.03524812181999304,
          -0.23855572014683,
          -0.13291357341345572,
          -0.40031116407234335,
          -0.014180991313421758,
          0.05559797862360736,
          0.21666094979660014,
          -0.2554801578260659,
          0.19152872337085,
          0.08876590103479053,
          -0.12557178752750336,
          0.06874952002072214,
          0.175057044861478,
          -0.11329037258539355,
          -0.03859657419009998,
          0.27908309888011257,
          -0.11989305576293896,
          -0.01398543461543147,
          0.122712592545098,
          0.14510428893137323,
          0.03465705689311156,
          -0.14902048901850354,
          -0.04349210304343643,
          -0.04672170863122613,
          0.06748288972240384,
          0.008029896910892915,
          0.14856883885278166,
          0.13851848894898694,
          0.019150347455551345,
          -0.09107168907729868,
          0.1679041581421411,
          0.08789581652228197,
          0.11776043007186889,
          0.021270063173948372,
          -0.007574314323896942,
          -0.08665294581255756,
          -0.13841731024323087,
          0.039409174085226636,
          -0.2490546903935758,
          -0.007311829933459935,
          -0.017069307512571782,
          0.12213590334361159,
          0.08227658927161131,
          -0.16507149629964946,
          0.047181431817980846,
          -0.1150577148590632,
          -0.09308150250381157,
          0.026553713999894195,
          -0.02080798053067446,
          0.07650085324145464,
          -0.0822503612276462,
          -0.2335908850615607,
          0.05177080451917144,
          -0.25965660867695656,
          0.1658352601615739,
          0.02196976775808475,
          0.06125277397651289,
          -0.010976274834369928,
          0.1947637165026547,
          -0.11773041519305683,
          0.14070389005721973,
          -0.0007933597166853386,
          -0.12127779475041602,
          -0.10929628547516539,
          0.10600195739220838,
          -0.12999751545909613,
          0.04926026267816794,
          0.03205121341827667,
          0.1549197340792867,
          0.09897431274743988,
          -0.09225074924791649,
          0.14827437362380316,
          -0.11167487139885679,
          -0.02209235530746951
        ],
        [
          0.1639701748730863,
          -0.19847822843372465,
          0.0018616634857155795,
          0.11535000903471668,
          -0.010311253766759064,
          -0.013856260331907195,
          -0.0007644151877723372,
          0.11728386189986512,
          0.0034354554457447757,
          -0.16127241361920303,
          -0.034624122319195344,
          -0.14647451502013215,
          0.18178537980974724,
          -0.1801588294233931,
          -0.05158185868425957,
          0.070051613484578,
          -0.052973251895721635,
          0.09417753335460641,
          -0.031220751704355586,
          0.11721816386682064,
          0.17821476777083523,
          0.17916146288700227,
          -0.1702462488002993,
          -0.10034980864531573,
          0.30860444704631285,
          -0.014814753894062662,
          -0.19645530321151725,
          0.041350908676307106,
          0.0758122720717488,
          0.06554503795195617,
          -0.0172036600075125,
          -0.056843719859857283,
          -0.0166329719823844,
          0.2693127433401593,
          -0.12475793071299421,
          0.17366539182460902,
          0.12428519894245814,
          -0.053182316182113394,
          -0.03984316638210071,
          -0.047789509159534824,
          0.033977824444203546,
          -0.07570392483657153,
          -0.18388879612026102,
          0.03286730567480256,
          0.13956344062219084,
          -0.18613046179657367,
          -0.08753136939544418,
          -0.19918257006209342,
          0.13605015022562975,
          -0.20817230268859344,
          -0.09922661857910138,
          0.12709292677460302,
          -0.06453158347882416,
          0.07446061328512267,
          0.1651132639726149,
          -0.0806951731201413,
          0.1566830446520222,
          0.07296926733728025,
          0.1307197265173474,
          -0.0026186144774956667,
          -0.02714452216368078,
          -0.07386199535145696,
          0.06395637733017345,
          -0.08628514520943668,
          -0.21493820765900548,
          -0.085402624296177,
          -0.14957751672136452,
          -0.08452309079776586,
          0.27240711053497757,
          -0.1781033382642803,
          0.16031400176407462,
          -0.18671894631638983,
          -0.03773429843709011,
          0.05412234483523388,
          0.04775852886018165,
          -0.009152883168894876,
          0.14944717862876403,
          -0.19053719378469203,
          0.061797968986162896,
          0.2807322972253778
        ],
        [
          0.1899146359867115,
          -0.15181301654408558,
          -0.1922606178863794,
          0.09127739486896665,
          0.16841325734969878,
          0.10527123873589163,
          -0.0006363417155118067,
          0.1519545810826323,
          -0.2913422732396942,
          -0.12440512400967664,
          0.1029140181008536,
          0.28343017159102557,
          -0.09142888770749485,
          0.2476151549012528,
          -0.08743950402572977,
          -0.12060807540081724,
          0.07834949419116127,
          -0.09572741828789556,
          0.20963518303577144,
          0.17426598453606626,
          0.15248545538994243,
          -0.20434822771661024,
          0.14373280903492955,
          -0.008801196942110229,
          -0.0210079951908023,
          -0.05385052237756198,
          0.08928455296057532,
          -0.042050226703572655,
          0.12169805160092273,
          0.039924585222218305,
          0.0739388563069946,
          -0.12473861911262303,
          -0.11186851362941957,
          0.046586053412387765,
          0.10264451911284417,
          -0.22558239688304316,
          0.09642632265729992,
          0.049022702804557186,
          0.15327819814913557,
          -0.11462353061659153,
          0.19533856010109238,
          -0.09714818430085385,
          0.08280974386936367,
          0.12605802910390745,
          -0.07294442395627289,
          0.17107449406775246,
          0.03397313766656499,
          0.15202750615299987,
          -0.16217405128450943,
          -0.19418911767207053,
          -0.07901500541055616,
          -0.13833375739619772,
          -0.021027686410817793,
          0.13462395807351227,
          -0.06555158021353898,
          -0.045442243347292625,
          0.28290937309134867,
          -0.10945976286578096,
          -0.0588381727487081,
          -0.17377977088950702,
          0.05121132298403269,
          -0.11685281374346976,
          -0.022170434823835,
          -0.13542327285056893,
          -0.13419443730051667,
          -0.0928950936998682,
          -0.00908821735934895,
          -0.03921759717112793,
          0.00708559451689442,
          -0.1435246001463762,
          -0.1776944938277762,
          0.0216971773125276,
          -0.051487243260824246,
          -0.09444370593369585,
          0.12543944320140635,
          0.09912162725470373,
          -0.12883639991818288,
          0.01185730519808472,
          -0.2122776208404803,
          -0.08037995462128063
        ],
        [
          0.12104661897311746,
          0.20782929703949748,
          0.33267829949667804,
          0.1522421908430467,
          -0.06220621790332593,
          0.021748989623954995,
          -0.13417465769108333,
          0.03087614418475974,
          0.10182219955159398,
          -0.03509799783262308,
          -0.17391796609188,
          -0.19003534078286144,
          0.27598584223605077,
          -0.10226497104946351,
          0.02794781922395386,
          -0.001129322288269413,
          -0.18288011144578387,
          -0.07098117437132147,
          -0.2087929741753563,
          -0.05201139420943985,
          -0.07131129571687946,
          0.21386697132246732,
          -0.03043626455285032,
          0.0026401223559348254,
          0.18835116419982623,
          0.17317091720122674,
          0.03793159710481989,
          -0.25295357179998484,
          -0.18207141633780355,
          0.02752264375439391,
          0.0810132090471213,
          -0.16228993651871457,
          -0.053565044139289156,
          0.14747187418322708,
          -0.150866104663416,
          -0.049551168686975455,
          0.29865991266450576,
          -0.04449414980017924,
          0.15404402346780396,
          -0.10469014702404598,
          -0.005144187781330912,
          0.11192041038103615,
          0.2791280869134698,
          -0.0808114785632788,
          0.19784386135647938,
          -0.26758698176665646,
          -0.14405595449654812,
          0.07111365086748406,
          0.2061502730352198,
          0.22191871887058853,
          0.1312703497865146,
          0.13617817628018528,
          -0.023039614060306537,
          -0.023918435730686638,
          0.010108830661750187,
          0.0841606755874491,
          0.11386011745604012,
          0.07217949838663189,
          -0.1458854399564294,
          0.2711748469958659,
          0.1158387253416018,
          -0.08069575821900975,
          -0.00815092840905559,
          0.4552597447778599,
          0.08061157423613936,
          -0.03720396008709796,
          0.25932680464121777,
          -0.009469482542521689,
          -0.15007334465530495,
          0.36089330336921766,
          0.02212508916767223,
          0.12268188729306549,
          -0.0388322463971847,
          0.16940908871733326,
          0.22008469703619252,
          -0.059555690154449184,
          0.09798602747276465,
          -0.15757671065452866,
          -0.03504395548719055,
          -0.015834287573645627
        ],
        [
          -0.30471462936750543,
          -0.056848465185271584,
          -0.19246455662025988,
          -0.021720419618687193,
          -0.2887189077885203,
          -0.14751153711788445,
          -0.08157274192683761,
          -0.006403261909132527,
          0.15240095179117805,
          -0.22611201573528875,
          0.1417626202146381,
          0.20259914708070884,
          -0.29591201249753646,
          0.1605016422014232,
          -0.02010654871017244,
          0.22786380910769335,
          0.1739860776587552,
          0.07007504379900681,
          0.05695397804206977,
          -0.21560713545081156,
          -0.0022193514838171353,
          -0.06369247136521423,
          -0.22257185856209283,
          0.029104661361876186,
          -0.21086886738743055,
          -0.12564850313850054,
          -0.03949786155660935,
          -0.09757971929438597,
          0.1082941070509177,
          -0.19988504500416712,
          0.14623315394315184,
          0.05840288551742962,
          0.19608864102638454,
          0.11860645184036611,
          -0.1566205752604414,
          -0.3342782744698317,
          0.037638667691152886,
          -0.08831415291251976,
          -0.0878387695893184,
          -0.17984136319849842,
          0.06136241140021955,
          0.04420844079447438,
          -0.17515086018593762,
          0.09422187585119295,
          0.20003416511868083,
          0.3591991601442976,
          -0.13921331085633012,
          0.005521157786070545,
          -0.14175541823001694,
          -0.017524124425433173,
          0.09769579914006328,
          0.0060687833001042335,
          -0.08147046983993537,
          0.060122312038837576,
          -0.11041148561106294,
          -0.029940184133442037,
          -0.10281549048126629,
          -0.01784368360783612,
          0.09250631857977422,
          -0.4173668681989004,
          0.2904330026762626,
          0.050630717730025254,
          0.15988313256324407,
          0.3385077218540614,
          -0.07763407828012363,
          -0.06889734739424755,
          -0.11507800703370431,
          -0.2180093951579434,
          -0.496774019578108,
          -0.3799285140493738,
          0.07411171416290681,
          -0.029774479447767916,
          0.134059462566908,
          0.0634269570320387,
          0.04697376014307347,
          0.043602578010068296,
          -0.18960699695083255,
          0.17688412693024952,
          -0.002091919371486049,
          -0.01143329930246079
        ],
        [
          0.17977529290549846,
          0.030533429505796385,
          -0.09034676019670572,
          -0.143955547983624,
          0.15501645137449713,
          0.2052161085990452,
          0.09501613263231591,
          -0.3595003144578566,
          0.07287523888187428,
          -0.16346380092437346,
          0.09502116754402377,
          0.1478028642619792,
          -0.08565246278224604,
          -0.18017335029804152,
          0.010423150133940896,
          0.05160293832903486,
          0.0949106080854978,
          -0.10226137431451227,
          -0.05975350984786733,
          -0.08846559766726356,
          -0.047046491448118004,
          -0.16708270925094684,
          -0.2655009866228399,
          -0.2521161666170256,
          0.07728733863550095,
          0.009033454611464856,
          -0.28308912817233656,
          0.010029936790906142,
          -0.25628138198950695,
          -0.16400718770947878,
          0.21720859442140578,
          -0.038691472310520406,
          0.07052751109222449,
          0.2270411412800306,
          -0.15699763385877558,
          0.05909351570051313,
          -0.3219798086574577,
          0.22882433966810817,
          -0.08655916691122068,
          0.07421921961983502,
          0.052984407274030455,
          0.2891811401891452,
          0.06745457938823586,
          0.08560856418599583,
          0.041441837801873334,
          0.20587706493069813,
          -0.14978842270370185,
          -0.1435041938817646,
          -0.08564163382490844,
          -0.09491705174633416,
          -0.14657856939553007,
          -0.1736734573832611,
          -0.019840400524314704,
          0.011721422085830943,
          -0.12548892460120561,
          0.2639714879207807,
          0.09870234799504846,
          0.17053396964054138,
          -0.23353012678509794,
          -0.12470486208706236,
          -0.09934177901588492,
          -0.30937182534739927,
          -0.04656195790646137,
          -0.008385285098181832,
          -0.1701303187360655,
          0.14972663002920034,
          0.009456085537693292,
          -0.16648809904109468,
          -0.22615431689382906,
          -0.2739695407575724,
          -0.2805405508000512,
          0.012665515308395886,
          0.0059990622809198944,
          -0.06857413616651996,
          0.030714204223420954,
          -0.20661049199724318,
          0.04014857402137054,
          -0.2503575799195289,
          0.09497973932612949,
          -0.0338047265911566
        ],
        [
          0.2861548427784838,
          0.35654928244438866,
          0.09451639270710377,
          -0.21864204721744615,
          -0.18740777831337327,
          -0.04186060643773282,
          -0.0335166004306864,
          0.07221947602889323,
          0.21024058927801106,
          -0.12087194362490938,
          0.042364675931086,
          -0.13625009363868176,
          -0.05093781774354816,
          0.31219098911837156,
          -0.053082438879647025,
          -0.07238231569442036,
          0.08549233797093954,
          -0.03312623133948365,
          0.09582803085863853,
          0.11425355586962917,
          -0.01597087431128728,
          -0.012695984157432885,
          0.039156582424955795,
          -0.10737604837028805,
          -0.14459357121344396,
          -0.10776860332583993,
          0.005165891383341088,
          -0.07212773242027246,
          -0.07755680917635838,
          0.007994060196742155,
          -0.23207378537583953,
          0.0637466830627367,
          0.2066611494310308,
          0.024626006381927065,
          -0.21170030944999024,
          0.08641010404975884,
          0.1839247346569397,
          -0.042165994635052585,
          0.06158781548014946,
          0.024406816232449852,
          -0.1502347228352525,
          0.15188384293257903,
          0.07180859162363949,
          0.0901214435220128,
          0.24543730508154502,
          -0.19012435694600616,
          0.1376651070575668,
          0.1646099099819009,
          -0.14566406606262733,
          0.35291253798892347,
          -0.07020913291214333,
          -0.13988147117228758,
          0.2617806790632709,
          -0.06247962419530016,
          0.028790912180397508,
          -0.034920462922264896,
          -0.036584848201787326,
          0.13206159582285645,
          0.3488249062961482,
          0.13977822638703258,
          0.19174856511669655,
          0.012032977266519588,
          -0.13212942315440543,
          -0.1922861757199135,
          -0.06776584980364499,
          -0.2886359878276281,
          -0.08311663035246525,
          0.10404220643303143,
          0.12975484296956946,
          -0.13481912318376404,
          0.16128555805450445,
          -0.05497410101804594,
          0.012375621291856608,
          -0.1475379699945358,
          0.008390065476268388,
          0.14268941834434223,
          -0.09230273791982886,
          -0.0352794956857928,
          -0.00042879874799431534,
          -0.08917256553602576
        ],
        [
          0.1703649385538812,
          -0.24038612714549032,
          0.23355789738187663,
          -0.12259901693996943,
          -0.0789544365181619,
          -0.0038243833492690666,
          -0.07325062187991921,
          -0.04508450330123051,
          0.06265911236488414,
          -0.2424251356372351,
          -0.02669497467831813,
          -0.047570854004123635,
          0.24697841083257965,
          0.0817791663902176,
          0.2644790717948864,
          -0.22194363784069532,
          0.15325347835809738,
          0.193396625203655,
          -0.1381764284162044,
          0.18852019831851263,
          -0.20064472204509348,
          0.10538006780394896,
          0.21963232061635335,
          0.06836541166966542,
          -0.05990557685580683,
          -0.09968502392779888,
          0.1304443003899312,
          -0.17033528994125702,
          0.06936260587961315,
          -0.10747849183004639,
          0.14656557413885385,
          0.05410568568163687,
          -0.1535554261129823,
          -0.04793383769578175,
          0.04275793976599689,
          0.2583222912785154,
          -0.2832662407272347,
          0.09479131777894259,
          0.006418110434428797,
          0.21445135295967763,
          -0.11483665939021519,
          0.02001189700249743,
          -0.058278918821558154,
          0.3134039173190686,
          0.18090834658968025,
          -0.08729000091152546,
          0.225696248485416,
          0.1567753786464185,
          0.1583198179506666,
          0.07047255269109869,
          -0.0041175693036351905,
          0.1452641230529264,
          0.12321122825706632,
          0.18701711451886427,
          -0.16918683126975018,
          -0.13045807231313866,
          0.10982310386334183,
          -0.019394591006714597,
          0.05882635181771473,
          -0.09462701556303565,
          0.052233521672187186,
          -0.20656668523906369,
          -0.12172526054397391,
          0.23398291778199293,
          -0.04054540507454523,
          0.10336417017131785,
          0.4116691101115403,
          -0.046112894645905254,
          0.07654654763882975,
          -0.20497085504239612,
          -0.3566941313720591,
          0.051506099255245255,
          -0.14647764894546847,
          -0.05226199499274458,
          0.15539249857037535,
          0.08863782833085541,
          0.08352050491541962,
          0.08459169870258605,
          -0.12063488248248931,
          0.1764931512774721
        ],
        [
          -0.3047774720547358,
          -0.07812606664954026,
          -0.15842704417183964,
          0.2023398458576022,
          0.1511317442894547,
          0.03214686979081638,
          0.24999072250030133,
          0.24152289229792653,
          -0.2722801378024135,
          -0.1604461945514211,
          0.21927333061767346,
          -0.016793751952852397,
          -0.2126047595261278,
          0.2938847636044372,
          -0.06219098634934416,
          0.1211492990415452,
          -0.10674704300576522,
          -0.34656658530629675,
          0.027022369843887166,
          0.23162780805140196,
          -0.29594727751592614,
          0.23704773171623372,
          -0.1740705942689563,
          -0.007197098906806515,
          0.05155440276921085,
          0.06082595558504796,
          -0.15353344410720113,
          0.24426956346852405,
          -0.17363249432165478,
          -0.2574425515599554,
          0.07015550408101584,
          -0.03910562524088633,
          0.16862347847540354,
          0.252183562529897,
          -0.19523645146855464,
          -0.10699705118121088,
          0.0750731594759427,
          0.311258397351071,
          0.08025312957368223,
          -0.1073738170259423,
          -0.11831170526352303,
          0.12650863756141284,
          -0.08613851754889357,
          -0.09767620222537338,
          0.05103959593196224,
          0.128408227274139,
          -0.009163632153919478,
          -0.09470818456548086,
          -0.017765290315279555,
          0.05508012748960556,
          0.23869202303699535,
          -0.10119168744444398,
          -0.05292523872251378,
          0.09298784009147527,
          -0.22802951567351543,
          0.13946962158468554,
          -0.17429879661273556,
          0.05722068938672989,
          0.042614759700659754,
          0.08420475026077807,
          0.39588958128575535,
          -0.2348355244194506,
          -0.19780644824742158,
          -0.06695987707023822,
          -0.1342708309294409,
          0.10040352564942866,
          -0.4557243528642124,
          -0.03435079008612145,
          -0.04802018778304661,
          0.0631492813077971,
          -0.007839667777989931,
          0.3415625058865104,
          0.0414252488828611,
          0.047139533273490214,
          -0.12541188158267488,
          -0.12452441284808703,
          0.28380336085139385,
          -0.2123613738724427,
          0.05125860242001437,
          0.12202289693878371
        ],
        [
          -0.19461638900956102,
          0.009143204835105242,
          -0.4560109196793239,
          0.1062949440700562,
          0.027463239302769376,
          -0.12074930146726767,
          0.045861563136176994,
          0.2989618664048391,
          -0.21138576515865232,
          0.09585916296639906,
          0.106805077995486,
          0.018094169950848473,
          -0.043096972563458034,
          -0.003192023113884831,
          0.012431843309567748,
          0.2268458888366795,
          -0.1141805487626631,
          -0.032100209006174656,
          -0.10210761708205147,
          0.11956112703018071,
          -0.26494759068607454,
          0.02660402294047678,
          -0.24755067894439606,
          -0.14146797936046815,
          0.01426852547269499,
          0.02375509885582508,
          -0.26212806003947814,
          0.10062055095876876,
          0.08448876823165939,
          0.11202330842139184,
          0.0875016894779686,
          0.0614966081559228,
          0.11863498896452918,
